0.840188
0.394383
0.783099
0.798440
0.911647
0.197551
0.335223
0.768230
0.277775
0.553970
0.477397
0.628871
0.364784
0.513401
0.952230
0.916195
0.635712
0.717297
0.141603
0.606969
0.016301
0.242887
0.137232
0.804177
0.156679
0.400944
0.129790
0.108809
0.998925
0.218257
0.512932
0.839112
0.612640
0.296032
0.637552
0.524287
0.493583
0.972775
0.292517
0.771358
0.526745
0.769914
0.400229
0.891529
0.283315
0.352458
0.807725
0.919026
0.069755
0.949327
0.525995
0.086056
0.192214
0.663227
0.890233
0.348893
0.064171
0.020023
0.457702
0.063096
0.238280
0.970634
0.902208
0.850920
0.266666
0.539760
0.375207
0.760249
0.512535
0.667724
0.531606
0.039280
0.437638
0.931835
0.930810
0.720952
0.284293
0.738534
0.639979
0.354049
0.687861
0.165974
0.440105
0.880075
0.829201
0.330337
0.228968
0.893372
0.350360
0.686670
0.956468
0.588640
0.657304
0.858676
0.439560
0.923970
0.398437
0.814767
0.684219
0.910972
0.482491
0.215825
0.950252
0.920128
0.147660
0.881062
0.641081
0.431953
0.619596
0.281059
0.786002
0.307458
0.447034
0.226107
0.187533
0.276235
0.556444
0.416501
0.169607
0.906804
0.103171
0.126075
0.495444
0.760475
0.984752
0.935004
0.684445
0.383188
0.749771
0.368664
0.294160
0.232262
0.584489
0.244413
0.152390
0.732149
0.125475
0.793470
0.164102
0.745071
0.074530
0.950104
0.052529
0.521563
0.176211
0.240062
0.797798
0.732654
0.656564
0.967405
0.639458
0.759735
0.093480
0.134902
0.520210
0.078232
0.069906
0.204655
0.461420
0.819677
0.573319
0.755581
0.051939
0.157807
0.999994
0.204329
0.889956
0.125468
0.997799
0.054058
0.870540
0.072329
0.004162
0.923069
0.593892
0.180372
0.163131
0.391690
0.913027
0.819695
0.359095
0.552485
0.579430
0.452576
0.687387
0.099640
0.530808
0.757294
0.304295
0.992228
0.576971
0.877614
0.747809
0.628910
0.035421
0.747803
0.833239
0.925377
0.873271
0.831038
0.979434
0.743811
0.903366
0.983596
0.666880
0.497259
0.163968
0.830012
0.867309
0.076995
0.649707
0.248044
0.629480
0.229137
0.662492
0.278740
0.290650
0.193300
0.036033
0.633072
0.223656
0.651132
0.510686
0.971466
0.280042
0.546107
0.719269
0.113281
0.471483
0.592540
0.944318
0.450918
0.336351
0.847684
0.434513
0.003231
0.344943
0.598481
0.833243
0.233892
0.675476
0.482950
0.481936
0.304956
0.712087
0.182556
0.621823
0.040864
0.413984
0.695984
0.673936
0.637640
0.347116
0.184622
0.609106
0.627158
0.730729
0.347231
0.584517
0.184216
0.774313
0.605731
0.452417
0.306028
0.388353
-0.204601
0.028547
0.657617
0.420608
-0.033688
0.164884
0.234172
0.419074
0.522884
0.680377
0.302598
0.789588
0.282650
0.346540
0.189751
0.984363
0.003579
0.827391
0.331479
0.188201
0.414902
0.937042
0.918930
0.764871
0.699075
0.121143
0.685786
0.383832
0.774273
0.943051
0.916273
0.861917
0.203548
0.793657
0.548042
0.297288
0.904932
0.909643
0.873979
0.498144
0.569912
0.162757
0.292767
0.856139
0.446139
0.242936
0.628717
0.107145
-0.692978
-0.604288
0.209056
0.023543
0.015986
0.531358
0.380000
0.769870
0.466460
0.201657
-0.093815
0.288854
-0.062806
0.160739
0.241431
0.358097
0.840335
0.753711
0.490048
0.815233
0.817770
0.495717
0.332504
0.391860
0.680069
0.630120
0.280144
0.172467
-0.016861
0.107848
0.647207
0.363598
0.288270
0.331386
0.091149
0.427328
0.934495
0.583570
0.265461
0.658747
0.761778
0.414508
0.167512
0.889405
0.469752
0.366006
-0.040348
0.297220
-0.090514
0.082775
-0.295969
-0.275970
-0.398005
0.271528
0.990847
1.288018
0.944381
1.442584
0.591486
0.666915
0.245603
1.144523
0.854389
0.369923
0.102267
0.797184
0.511957
-0.227103
0.186145
0.481223
0.372105
-0.269940
0.107007
0.420308
-0.221740
-0.117204
0.381250
0.268478
0.499682
0.698452
0.251951
0.051508
0.053422
0.457716
0.780868
0.692076
0.442560
0.119111
0.589637
0.578635
0.529899
0.401272
0.297880
-0.034357
0.654341
0.112903
-0.032958
-0.087696
0.204685
0.229422
-0.106566
-0.151229
1.146014
1.521345
0.673089
1.409200
1.947971
2.286536
2.287916
3.362197
2.045163
2.547203
1.984623
1.363916
1.480536
0.275679
-0.581738
-0.603289
0.163192
-0.342252
-0.518127
-1.053485
-1.177993
-0.837613
-0.303208
-0.530554
0.511177
0.707660
0.615642
-0.009276
0.370234
0.164456
0.376047
0.230996
0.385748
0.532846
0.182054
0.582728
0.041909
0.380215
0.203468
0.156738
0.649740
-0.174725
0.308221
0.523513
0.604362
-0.045770
1.111596
0.893832
1.193871
2.301986
1.764620
2.256561
3.394164
3.382453
4.441511
5.543682
5.190951
4.469734
4.102206
3.241454
2.480940
2.043322
1.572071
1.467502
1.494229
0.813819
-0.015910
-0.534106
-1.249205
-2.139587
-1.799597
-1.293897
-1.297067
-0.270221
0.390857
-0.228522
-0.133341
0.343793
0.850723
0.502103
0.240939
0.885014
0.186265
0.157139
0.530791
0.781738
0.681244
0.882430
0.058496
-0.053325
0.352763
-0.000266
0.121166
0.233451
1.013115
-0.166327
1.614922
2.133705
2.933339
3.475588
2.999682
5.356681
5.043594
4.729459
5.557533
6.458481
6.559264
5.583109
5.362313
5.994439
5.858034
4.316346
3.126007
2.768791
0.504859
-1.009756
-0.020954
-1.345825
-1.392539
-1.140290
-1.303162
-2.110993
-1.699280
-0.887898
-0.774319
-0.011011
0.025468
0.249427
0.121031
0.494691
0.006595
0.779822
0.518151
0.832609
0.515049
0.038099
0.481526
0.469646
-0.062194
0.172583
-0.297046
0.433709
-0.146338
-0.372658
0.232377
0.599209
2.269349
1.771659
3.169564
4.311812
4.457523
3.968431
4.553161
4.923869
5.290892
5.289785
4.036643
4.733663
6.018743
4.432972
3.442317
3.010801
1.659419
1.414945
-1.363026
-0.476323
-1.375723
-2.674259
-2.286810
-1.917109
-2.151138
-2.675086
-2.840904
-1.814362
-0.797423
-0.714895
-0.772640
0.298458
0.743202
-0.018058
0.378685
0.727238
0.766448
0.904782
0.284915
0.700622
0.974393
0.285636
0.258380
0.038434
0.139335
0.553707
0.889468
0.587265
2.056206
1.850034
1.952936
-0.454389
2.846418
4.312456
4.449321
4.893456
3.312346
5.392500
3.224460
5.992348
5.773995
4.651741
4.851742
3.918784
1.458859
-0.012903
0.468366
1.294937
2.217724
-0.980679
-1.954561
-3.195452
-4.897793
-3.184390
-2.044584
-2.075043
-1.993261
-1.382673
-0.753628
-0.895132
-0.749625
0.833424
0.419698
0.945733
0.731278
0.450516
0.272987
0.946640
0.122326
0.729844
0.467158
0.386657
0.480654
0.008300
0.636080
1.066753
0.346942
0.844216
0.025038
-0.856488
-0.517544
2.024512
2.606674
2.596150
4.525908
5.701510
4.050526
7.428507
7.379361
7.838306
5.995230
6.629869
8.075748
6.226095
6.007246
6.116506
4.542985
2.128892
1.450812
2.060558
-0.328175
-0.857008
-1.444574
-2.300007
-1.904736
-2.606713
-2.065763
-2.083143
-0.545750
-1.266706
-0.393015
0.234347
0.770309
0.450099
0.054374
0.766701
0.803330
0.698713
0.681922
0.764592
0.230453
0.329603
0.111644
0.539050
0.689256
1.320986
0.463024
0.547326
-1.311160
-0.854318
2.003656
2.656806
1.970530
1.684165
2.242759
3.976416
6.000068
6.882918
4.251727
4.474859
6.395156
6.840620
5.255484
5.905293
4.907581
2.213498
2.379436
1.741068
0.712956
0.820046
1.614480
-3.464786
-3.858144
-1.326753
-0.893646
-0.065561
-0.625889
-0.065921
-1.646140
-1.364642
-0.721059
-0.338179
0.198011
0.652405
0.243140
0.183560
0.759208
0.258112
0.683574
-0.109021
0.513732
0.666327
0.557216
0.158083
1.227753
0.364972
1.865930
1.152405
-1.013339
-0.665917
1.900760
1.759425
-0.223661
3.011246
2.761823
8.524116
4.842744
4.597621
8.422480
9.397483
7.877476
8.962876
10.782003
7.954955
8.163718
7.759096
3.413727
2.404034
2.460702
1.044673
2.700701
1.699709
-2.889748
-4.078355
-1.234839
2.169508
0.872599
0.108962
-1.026375
-0.571675
-1.600541
-0.260752
0.558425
0.705919
-0.034866
0.510841
0.736462
0.743727
0.917149
0.077706
0.484399
1.053673
0.415337
0.862730
0.528674
1.047919
0.882141
0.566828
-1.389356
1.870436
1.714947
0.768002
0.667563
1.536943
6.092938
3.727916
7.020409
8.459836
9.444007
10.398758
11.557076
10.980053
9.444462
9.443834
8.468872
5.081942
5.498078
3.214004
2.131067
0.500861
-0.312146
1.827647
3.215777
-0.983088
-0.975918
2.263209
2.492900
2.398790
0.436958
-0.568824
-1.422846
-1.277351
-0.169030
0.307718
0.365987
-0.062336
0.649787
0.126222
0.461949
0.098240
0.832706
1.179075
0.846616
1.503949
1.348581
1.089193
1.169997
-0.069568
-0.534434
1.445695
-1.217685
-1.353912
1.351147
2.124622
2.824024
4.449529
4.965734
7.708407
11.416776
10.894545
11.435977
12.550447
12.442027
10.867779
10.116756
5.987052
4.372526
4.798272
-0.249601
-1.304417
-0.305643
-1.291429
1.767020
1.076602
-1.355181
1.206031
2.362391
4.547424
1.455728
-0.525638
-0.615866
-1.758933
-0.494371
0.115627
0.816629
0.728604
0.619634
0.184025
0.666707
0.334141
0.195063
1.673528
0.091770
1.663338
0.776368
0.828020
0.748196
-0.410267
-0.749314
-0.761087
-1.831202
-1.844014
1.076804
3.485342
1.500982
4.045253
1.749141
5.677043
7.334721
9.073599
10.560111
11.156000
13.427688
11.033099
9.747553
8.216166
2.964575
-0.269942
0.427878
-1.538032
-3.420474
-3.395372
-2.034054
0.670447
0.499119
-0.832980
1.222672
2.497442
1.209580
-0.660259
-1.132378
-1.042378
-1.213628
0.742475
0.953687
0.283098
0.251119
0.394239
0.188822
0.516277
0.137475
1.752482
0.864605
1.813564
2.072889
1.532763
0.014962
-0.710131
-1.497705
-3.245856
-2.925229
-3.820259
0.365922
0.535046
3.519451
3.619824
4.053931
5.238212
7.443157
8.128145
8.534743
8.226939
10.787409
13.569420
10.032954
6.236137
3.098080
-1.025171
-0.876835
-0.376051
-3.312797
-3.948306
-4.677906
-0.049444
-1.715541
-0.297047
-0.032128
1.074519
2.600342
0.318528
-1.171541
-1.217752
-0.864084
0.191683
0.111940
0.557970
0.208174
0.296582
0.476476
0.353626
0.744951
1.503416
1.370835
2.037192
2.183422
1.398072
-0.115353
-0.752051
-3.928870
-4.218026
-5.600256
-1.640827
1.228154
3.378324
0.611639
5.595488
4.858614
7.573068
9.686944
9.896277
9.027401
9.453651
7.866674
7.186160
5.518416
5.171764
5.900498
2.326635
-0.211770
-1.859411
-2.748303
-3.381673
-2.983643
-2.370106
0.600601
-1.240954
0.000696
0.405059
1.810030
-0.833817
-2.310534
-2.800549
-1.228398
-0.106493
0.652686
0.922307
-0.027149
-0.030106
0.029789
1.065924
0.967437
0.694360
1.874522
0.881488
2.627824
1.533323
0.374851
-2.894396
-1.364979
-4.530728
-2.340668
0.605935
2.326103
1.769646
2.876594
3.712760
5.621127
8.163874
8.928198
8.866189
8.498006
9.243537
6.118828
5.852226
1.707628
4.930810
4.862503
4.677225
3.767508
0.078853
-2.689639
-4.054232
-3.570990
-2.455308
-2.658084
-1.417079
-3.948987
-2.082862
-2.539148
-2.304746
-3.364050
-2.158722
-2.142468
-0.758062
-0.088563
0.516292
0.559577
0.907095
0.600775
0.793340
0.516758
0.345066
1.943806
1.432659
2.833807
0.207859
-0.149329
-0.464549
-2.200004
-4.777659
-2.243168
-0.155944
2.471979
1.806719
6.310773
4.992162
8.646298
8.564165
7.811348
6.813116
8.176686
9.379598
7.511281
4.960087
3.738659
4.992025
6.916139
5.454352
6.118495
4.300412
-0.518288
-0.662449
-2.319868
-2.151723
-0.687496
-2.491150
-4.760356
-5.970251
-4.855910
-4.127560
-3.413447
-3.520380
-2.740136
-1.915858
0.163316
0.253021
0.254595
0.451221
0.661338
0.243341
0.720392
1.222853
1.492898
1.017825
3.395840
0.125804
-0.321160
-0.151806
-3.930127
-3.520759
-2.685646
2.984576
5.085835
5.283983
8.024116
8.705163
7.148539
7.704792
7.879962
5.375937
6.617313
8.025263
3.595338
3.022617
3.494124
4.698498
7.015719
8.661599
6.136136
8.782906
0.559179
0.829342
-1.558030
-1.619414
-1.394218
-5.875278
-7.562325
-9.129412
-6.792819
-4.400298
-3.057080
-4.067143
-3.639664
-2.036993
-0.610056
0.270372
0.334064
0.302580
0.586537
1.068522
0.695726
1.067856
1.262438
1.233328
3.126023
0.755827
-0.474911
-2.325967
-4.393213
-3.689972
-2.761635
3.780848
6.829942
9.037022
8.511373
11.224221
9.644326
9.214905
7.647032
3.972553
3.679432
4.359854
3.951359
1.079928
1.078340
4.944569
6.710877
10.212165
7.002689
9.584272
7.487121
2.245608
-1.019503
-2.449398
-2.293523
-4.957748
-8.307584
-8.613873
-10.787948
-7.491194
-5.566750
-5.239990
-3.874373
-1.830404
-0.381360
0.044870
0.553957
0.939649
0.782842
0.941460
0.800651
0.327208
0.925262
0.296232
0.610274
0.032961
-0.788616
-3.575923
-4.670873
-1.701731
-1.713624
6.487226
9.121545
12.807221
15.564073
14.896774
12.694228
9.275964
3.874827
1.752431
-1.252939
-0.324431
0.238390
-1.215502
-0.791688
2.855651
4.944770
10.714780
9.309480
9.433067
11.798851
4.848172
2.843237
-1.193633
0.347090
-3.707155
-7.263328
-9.746738
-9.494286
-9.019960
-5.662315
-4.152737
-3.053601
-1.527257
-0.892477
-0.084338
0.018085
0.769074
0.956788
0.481832
0.854639
0.303590
0.738769
1.336350
0.831898
-0.658396
-1.363346
-2.654268
-4.112475
-3.773540
-0.944042
7.208707
13.650864
15.299641
16.633235
18.290838
13.093847
8.308103
1.916799
-2.360927
-5.291542
-7.212905
-6.608866
-7.022016
-2.903985
-1.593636
4.126439
6.114119
9.518039
9.112305
8.862668
8.118718
4.382921
0.870931
3.357417
-1.190088
-3.646779
-9.142989
-10.173027
-6.677588
-3.811813
-2.081605
-1.014766
-1.359985
-0.423086
0.215781
0.464957
0.840804
0.067462
0.689799
0.278866
0.103125
0.358463
0.610326
-0.113241
-0.728850
-0.791070
-2.885636
-3.836299
-2.900919
0.949165
9.863524
17.233307
18.083756
15.742590
17.842540
8.974608
4.907656
-3.747825
-10.476360
-11.911499
-13.196593
-16.578452
-16.004779
-10.360730
-9.306431
-3.682596
0.801021
6.351499
6.610390
7.054878
9.835918
7.063164
4.688244
6.001039
1.013341
-1.111663
-4.602419
-7.772558
-5.467131
-2.763893
-2.453508
-0.233971
-1.435162
-0.013173
0.012700
0.034307
0.774659
0.786888
0.017321
0.785666
0.259456
0.815074
0.092851
0.780620
-0.271854
0.411701
0.053480
-0.343271
-0.162264
3.530061
12.043449
19.188823
20.069099
15.879466
15.134921
7.029929
0.375428
-10.006007
-15.056718
-17.006605
-19.841648
-21.462690
-21.306852
-18.254592
-15.978215
-13.939367
-9.446253
-3.104486
-1.964760
3.699023
10.072011
7.446358
7.290137
5.522075
3.871309
0.515679
-1.209787
-7.672937
-5.741709
-1.971139
-0.753284
1.103781
-0.722065
0.191122
0.403989
0.993528
0.059163
0.024642
0.459782
0.734285
1.033032
1.122242
1.004244
1.366409
0.766468
1.371674
-0.070543
0.792363
-0.135624
3.626819
13.941663
19.345472
18.232093
14.869889
13.123737
3.823271
-2.322272
-12.056280
-18.326001
-21.847635
-20.598618
-24.126321
-22.050737
-24.296309
-20.242856
-21.349751
-18.252212
-10.519965
-8.510967
-3.175152
4.652453
7.205110
7.236571
8.833515
7.496984
4.451674
1.832606
-4.378352
-4.106320
-0.899994
1.102060
0.773852
-0.532981
0.223195
0.243251
0.102443
0.143224
0.146914
0.706949
1.159873
0.892769
0.746263
1.579153
1.465492
1.134963
1.350707
2.063473
0.360567
2.395002
4.345246
16.967440
20.593225
16.693133
13.005771
7.934019
0.147074
-6.436820
-18.034489
-21.385026
-22.794102
-18.776656
-15.816893
-16.468753
-20.247257
-20.915202
-20.842307
-25.493970
-19.504897
-13.234441
-10.270523
-0.571254
5.959562
6.833112
8.654988
11.931859
6.550448
4.636825
-1.102551
-2.456982
-0.859102
2.066819
0.398705
-0.911818
-0.438815
0.527195
0.625596
0.376631
0.630351
0.302225
0.669047
1.331623
0.446198
1.224483
1.786928
2.752361
1.108943
2.962502
4.163194
2.153352
4.692365
15.803200
17.164609
17.383049
9.863095
4.057857
-1.307924
-11.796644
-18.605473
-26.105101
-22.228987
-12.976799
-8.081947
-7.086312
-10.831325
-14.573028
-21.221578
-27.364037
-25.012679
-22.459544
-14.561268
-5.652756
4.006907
7.280940
10.947318
12.999523
7.755223
3.526837
1.095761
1.042005
-0.939848
2.006158
2.570842
-1.060988
0.118826
0.426246
0.267567
0.326680
0.527223
0.416021
1.155763
1.001589
0.387576
0.734023
2.200142
3.083281
3.175200
4.030123
5.636625
3.051119
5.309316
13.751036
17.085430
13.994295
8.647992
3.580909
-5.729791
-16.035340
-22.515112
-22.525371
-16.520666
-6.263567
-1.766751
-0.414925
-4.054704
-9.769778
-19.097757
-27.752897
-31.305050
-28.410145
-19.590995
-10.964625
1.316635
7.479939
10.809093
13.342855
10.569771
4.898584
3.502996
2.131187
2.027533
0.549828
1.153207
0.182618
0.677057
0.648167
0.489597
0.829569
0.916250
0.579965
0.044366
1.341576
0.837195
0.381171
1.477220
3.370263
4.000013
2.834836
6.344957
5.582574
6.565470
13.768180
16.451231
13.952219
8.012531
0.667820
-7.888953
-16.548024
-22.160654
-24.317898
-15.841860
-4.544208
0.496177
1.096327
-3.455090
-9.648925
-19.098397
-26.281863
-33.406691
-33.352603
-25.152898
-13.773086
-2.272640
4.974780
9.771862
12.605354
9.400211
6.912068
4.133636
4.522944
3.791981
0.632667
1.897076
0.691833
0.138120
0.997052
0.748551
0.355508
1.009310
0.072321
0.290947
0.620423
0.556371
0.905288
0.891468
0.949133
3.118509
4.036485
5.017980
3.815875
8.671728
11.411652
15.638891
14.107786
8.972463
0.727959
-9.124603
-18.681571
-24.393964
-21.629432
-15.499136
-4.404143
-2.242701
-1.293507
-5.256621
-10.204969
-16.170511
-24.389329
-34.164403
-35.336639
-28.017718
-17.970583
-5.173449
4.536793
10.548869
12.026399
11.271351
5.699195
5.790360
6.371932
3.809426
2.634570
1.638701
0.803334
-0.106027
0.551302
0.716247
0.927623
0.813858
0.299429
0.962637
1.306638
1.213867
0.826950
1.188416
2.719099
4.338131
4.298358
5.814649
4.325573
6.597996
13.723779
14.091138
15.080661
7.713811
2.884335
-8.167084
-15.269665
-23.430131
-18.956193
-14.755313
-6.400710
-1.107373
-1.150040
-4.352856
-9.840400
-17.232607
-25.526606
-37.592908
-34.828780
-27.147619
-18.938816
-5.471462
2.263161
8.714707
13.424778
11.441867
10.550913
6.690891
5.897904
5.291912
2.679513
2.264762
1.467516
0.492311
0.461706
0.304929
0.138082
0.285365
0.199938
0.255076
0.998648
1.350211
0.893415
1.397882
2.455497
2.244999
3.554350
4.816116
4.074192
6.280484
9.515040
11.672028
14.262067
8.589184
4.550875
-6.918110
-13.832834
-20.779162
-20.480626
-13.311222
-9.753342
-5.537546
-3.274446
-4.559213
-10.260814
-16.312526
-28.435966
-34.652810
-36.906010
-25.898620
-15.371113
-7.530663
-0.220407
9.199196
12.801384
11.034880
8.736963
7.604164
6.147325
6.664116
2.415835
1.865679
1.213893
1.405629
0.105051
0.849692
0.756264
0.693311
0.401325
0.518436
0.385647
1.252725
1.760855
2.040698
2.355428
2.551943
2.995112
3.187800
2.375521
5.023623
7.972118
12.664314
11.976016
11.440223
5.103399
-3.973650
-13.934365
-20.075523
-22.711431
-16.007032
-12.180794
-9.173064
-6.376245
-8.935830
-13.288147
-21.704747
-27.434451
-33.862117
-33.135088
-20.596831
-13.668792
-7.492560
0.697796
9.183748
13.226679
8.332066
8.744337
6.945997
4.811856
6.381543
3.855779
2.204965
1.573487
0.727013
0.625650
0.737744
0.448881
0.325518
0.094923
0.998142
0.240479
0.595686
1.175311
1.522786
2.093192
2.883443
2.936946
4.015285
1.702677
2.136997
5.565873
10.489629
10.484985
9.250380
4.646332
-0.370794
-10.879190
-16.666657
-23.322772
-20.513976
-17.357638
-11.299134
-9.180530
-11.662788
-16.344329
-22.444076
-25.404919
-26.682285
-27.619019
-15.752804
-9.039940
-4.792375
5.462230
11.541125
13.911790
10.703040
9.770068
8.783653
4.697862
5.172868
3.670634
1.961348
1.837947
1.196293
0.979244
0.124951
0.782631
0.507775
0.199617
0.677342
0.045969
0.450657
0.768708
1.648304
1.413889
0.416694
1.278562
2.346661
2.263626
3.526927
4.280246
9.075892
6.869790
9.502491
6.622833
-0.221881
-7.887310
-12.383064
-16.650555
-21.043127
-21.498319
-20.056689
-16.902119
-15.799043
-19.291199
-21.170972
-18.412805
-17.805268
-17.996274
-10.052179
-5.763841
-0.092416
6.833025
16.145544
15.006183
9.178953
6.851745
8.513893
6.540088
4.230089
3.021834
1.426365
0.881355
0.804110
1.036302
0.169449
0.528037
0.677655
0.086052
0.180886
0.238448
0.130937
0.330643
2.031479
1.614285
-0.425630
-0.406506
-0.007035
0.862490
1.634816
3.379912
5.489719
6.938958
8.946631
9.021858
2.589708
0.008609
-5.582721
-10.293024
-16.397106
-18.081191
-16.797631
-17.307610
-16.297833
-16.652458
-17.576711
-14.573997
-8.841940
-7.927781
-5.057467
0.128620
6.335539
11.937542
17.132570
15.150127
8.527636
4.844283
6.509856
5.368509
2.649546
3.136649
1.163988
1.076361
1.490990
1.263333
0.760812
0.106881
-0.031627
0.575486
0.752820
-0.134021
0.798022
0.649743
1.448873
0.953870
0.106159
-1.871422
0.358213
-1.330640
-0.220355
2.886873
0.099333
6.333660
7.056072
8.769995
5.916042
3.477526
0.253861
-0.311193
-5.349296
-9.345694
-10.490147
-10.467372
-7.892479
-7.861082
-8.518360
-6.778487
-3.436211
-2.231341
2.884931
5.862069
13.994420
17.067578
16.151073
16.151658
9.895598
4.178489
3.748239
3.566526
2.675161
2.126197
0.775641
1.119986
1.144563
1.044401
1.290220
0.423813
0.232220
0.249660
0.052069
0.016268
0.397892
0.070221
1.769394
0.939764
-0.725558
-2.978274
-0.901689
-2.472393
-0.579344
-0.415071
-0.579893
3.108339
3.718524
5.563097
5.275386
4.732106
2.769945
4.638017
1.549705
-1.921940
-0.324730
-1.473241
-1.076038
-0.069210
0.165815
1.943253
5.348523
6.319186
9.918399
11.949828
16.532723
18.057043
16.428553
12.881388
7.675144
4.020334
0.385151
2.007993
2.649154
3.024631
0.751722
0.303489
0.506080
0.718425
0.706284
0.666128
0.059569
0.663619
0.749064
-0.135611
0.548973
-0.294704
1.680460
0.281258
-0.866817
-2.576369
-0.864758
-2.281940
-1.887902
-0.652773
-2.097648
2.085901
3.083136
3.134341
4.618677
8.191412
4.307304
7.331987
4.630741
3.910716
2.745576
2.572214
2.111328
4.959765
7.708961
11.680762
12.176267
14.356669
14.666903
14.587877
13.843738
17.013723
14.403147
12.258714
4.439737
2.225778
0.403994
0.542013
1.912060
1.558792
2.137729
1.279148
0.066415
-0.315478
0.922202
0.492559
0.655908
0.159117
0.686655
0.588485
-0.056691
-0.185234
1.573353
-0.370126
-0.983523
-1.684809
-1.358669
-3.749331
-1.753654
-3.463813
-3.592794
-0.009251
1.361934
2.441214
4.139747
6.928289
5.390487
7.295514
10.044519
6.048145
1.859190
4.108400
4.378643
7.400598
11.480603
12.440057
14.147335
18.541992
17.083291
15.663004
14.625314
18.336741
12.628289
7.293827
1.890983
0.079710
-1.299911
1.770174
-0.024562
1.705584
1.530094
0.446293
0.210443
-0.333034
1.056342
0.176166
0.455195
0.895828
-0.005433
-0.052069
0.485276
-0.488897
1.488178
-0.841768
-0.530261
-1.210684
-1.442360
-2.073626
-2.529032
-2.171341
-3.794532
-0.976906
1.223260
0.561088
1.186269
5.732635
7.395162
5.528410
7.032517
5.207952
4.180190
2.522588
6.363218
8.163273
9.819126
14.640581
14.768022
17.778882
16.158805
17.484566
14.116924
14.190737
9.662491
6.456398
0.229354
-1.210784
-0.982120
1.781677
-0.541565
1.112599
0.602762
1.925340
0.685672
-0.315243
0.273020
0.539164
0.790421
0.558287
0.804440
0.313033
0.503687
-0.334880
0.716157
-0.536357
-1.513628
-1.258937
-1.405066
-4.113971
-2.371099
-3.194167
-4.530263
-1.829033
2.312713
0.814222
0.544910
3.453952
6.711581
6.289014
6.341952
5.124637
4.686085
3.183944
4.679138
7.204619
10.236695
12.359552
13.444510
12.511102
12.790960
12.871335
11.125021
6.834932
6.253454
3.493990
-1.055941
-2.206937
-1.755706
-0.256701
0.134411
-0.771143
1.366638
1.081866
0.591566
-0.182122
0.729328
-0.117755
0.375696
0.423777
0.334477
0.295858
0.178816
0.232319
0.247724
0.563059
-1.168716
-1.688754
-3.329575
-0.805628
-1.135195
-1.796870
-2.207989
-2.705173
2.322691
1.147346
-2.173839
0.164326
5.216059
3.936777
6.241449
5.505078
2.746296
7.250633
6.106058
8.474676
11.209421
10.865038
12.172364
12.311071
9.459818
8.892510
4.702690
2.795236
4.594105
0.826478
-0.411607
-4.621272
-3.158260
-2.562636
-1.342737
0.128552
1.141349
0.850897
0.755809
0.492911
0.193416
0.429369
0.138876
0.358727
0.464224
0.230946
-0.002214
0.226588
0.877247
0.544282
-0.151024
-2.099214
-2.379873
-0.667576
-1.334151
-0.566854
-0.270098
-3.491817
1.917815
1.230014
-0.088701
0.483902
3.992920
6.768436
4.170715
4.642200
5.764787
7.867292
7.868308
8.517602
10.292967
8.880514
10.895957
8.704009
6.910696
2.799174
3.019249
2.524992
3.020865
-0.342996
-2.580698
-3.049115
-3.097725
-2.726076
-1.398666
-0.567262
1.762926
0.758477
-0.001486
0.661793
-0.039593
0.515761
0.307582
0.925819
0.723902
0.554143
0.059972
-0.409224
0.247858
-0.268833
-0.635840
-2.513183
-0.994163
0.325777
1.054309
-0.625112
0.491017
-1.400568
-1.057885
1.925031
1.273426
2.764664
2.800868
5.419804
5.423310
6.370462
7.189908
7.509278
9.223603
8.663435
9.238482
7.610609
6.288927
4.595794
2.985767
1.293524
1.196874
0.571884
-0.165747
-1.046400
-3.587309
-4.294464
-3.241470
-2.549955
-1.087939
0.088787
0.881554
-0.587221
0.401081
0.219393
0.413472
-0.048345
0.731457
0.538205
0.743163
0.552069
-0.118799
0.051063
-0.146985
0.177793
-0.403012
-1.897805
-0.618789
-0.043803
-0.809477
0.659979
0.709874
3.021067
0.276436
0.948894
1.543017
2.907936
2.565099
5.090382
5.628316
5.862808
6.563817
7.240264
7.808337
6.327605
9.085431
5.513714
1.262401
1.168258
1.173848
1.168969
0.333415
-0.153510
-1.755716
-1.797445
-2.941574
-3.059168
-2.286788
-2.397338
-0.390963
0.587999
0.420469
-0.175931
-0.675664
0.172817
-0.017181
0.440002
0.251469
0.202310
0.771723
0.701604
-0.129400
-0.249726
-0.288941
0.183764
0.166574
-0.819814
-0.546587
0.066090
-1.537818
-0.748014
1.437647
2.247814
4.155352
2.149205
1.008268
1.032088
1.266057
5.668053
6.203167
6.571184
8.149526
6.880852
8.804317
6.637722
6.702838
4.297644
2.587636
-0.468434
-0.237351
-0.883445
1.057391
-1.586797
-0.278513
-3.672023
-3.648902
-5.042284
-1.543026
-0.824015
-0.903427
0.141554
-0.493131
-0.481002
-0.933549
0.344155
-0.009613
0.319354
0.869729
0.524878
0.415685
0.133441
0.093632
0.251473
0.362371
-0.121227
0.527752
-0.767995
0.419112
-0.860182
1.119202
-1.477818
-0.041319
3.431040
1.425850
5.259449
1.095240
2.600073
1.069594
5.810170
7.600846
7.733825
6.835710
9.700012
6.069950
6.984716
4.462924
3.710170
1.641640
2.363705
3.375048
3.865695
0.342446
-0.850985
-2.951631
-5.028328
-6.666480
-4.942660
-3.511788
-2.297684
0.512171
0.380109
-0.792307
-0.629356
-0.963748
0.465579
0.277154
0.455966
0.437983
0.078135
0.083091
0.781938
0.179320
0.669837
-0.044493
0.259951
0.062488
0.346616
0.601728
1.291936
-1.443286
-0.315375
-1.536984
0.219842
3.541879
6.443707
3.413187
3.219750
4.922487
3.976096
5.957161
8.982409
9.609723
8.577620
8.895046
5.561759
2.797171
3.168740
3.430615
2.839136
3.047855
2.594695
-1.098783
-4.374210
-5.525092
-7.157112
-6.825760
-5.652765
-2.864280
-0.033723
1.560668
-0.662487
-1.712585
-1.198840
-1.218869
0.236173
0.345324
0.208709
0.039583
0.364695
0.735899
0.172232
0.210983
0.418407
0.796150
-0.523814
-0.947467
-0.330876
-1.438769
-0.187868
0.219634
0.319196
0.202885
-1.134104
0.842143
5.382549
4.920671
7.025588
5.203832
5.368763
4.880336
5.591564
8.761179
7.851603
6.162071
5.407388
5.949049
2.319226
1.811443
1.574460
-0.274427
-2.658496
-2.835401
-4.939614
-7.018914
-7.618435
-6.014380
-3.254296
-1.157558
-0.175395
-0.142748
-1.765930
-2.165409
-1.196830
-1.179517
0.034281
0.607111
0.190776
0.602427
0.280467
0.794763
0.235047
0.795493
0.487007
0.246954
-0.018327
-0.597976
0.099219
-0.718408
-0.553797
0.387087
-0.497323
-0.267998
0.993539
0.339038
3.967427
5.727746
5.993661
6.693791
4.289546
3.989090
6.429601
6.390369
5.692294
3.950262
6.303798
4.130049
1.411708
-0.850799
0.384809
-1.438161
-1.612267
-4.815278
-6.323003
-7.833540
-6.589068
-6.009947
-2.788831
-1.784114
-0.936255
-2.429054
-2.681953
-2.091743
-1.628190
0.025046
-0.552263
0.726575
0.732627
0.173388
0.943601
0.522588
0.291475
0.797938
1.026543
0.460364
-0.174154
0.037376
0.331022
-0.184527
-0.771800
-1.179239
0.139192
-0.157085
-0.397524
0.018264
0.493824
2.468830
5.446968
6.700347
6.445179
6.234757
5.427164
5.669560
4.881408
3.844522
1.676407
3.777677
4.086937
2.152813
0.758583
-1.967846
-3.905380
-7.528145
-6.135433
-6.557227
-5.734394
-3.377023
-1.763536
-1.650846
-0.747507
-4.357681
-2.621422
-0.927206
-1.717002
-0.941941
-0.530107
-0.317519
0.546854
0.465905
0.584516
0.527224
0.351557
0.962112
0.684499
0.923102
0.334911
0.743102
0.464742
-0.006310
0.190227
-0.618720
0.190255
-0.808897
-1.050885
-1.396980
0.210632
1.402176
1.836224
3.447777
4.331242
5.743604
3.551973
3.933507
2.233907
2.814293
1.262447
-0.231966
1.139148
1.812272
1.187981
-1.494066
-2.888848
-3.214452
-2.912390
-3.867267
-4.643442
-3.159131
-2.864781
-2.413469
-2.318173
-2.954988
-1.893400
-0.891983
-1.615390
-0.662879
-0.103611
0.448975
0.180150
0.144388
0.083580
0.030963
0.506471
0.564406
1.131332
0.957638
-0.084539
0.394305
0.347877
0.511177
0.811455
1.072145
2.069530
-0.030896
-0.591904
1.318269
1.184108
0.881262
2.454570
1.978855
4.385550
6.499068
6.022464
5.314699
6.215219
6.997947
4.842333
3.694547
2.096667
0.255934
-0.206757
0.642451
-0.410745
-0.734496
-1.684277
-0.811100
-1.201047
-1.517892
-1.971230
-1.990869
-1.867741
-1.978482
-0.813619
-0.550464
-0.326563
0.074025
0.075482
-0.185227
0.086795
0.461816
0.718099
0.378859
0.156801
0.450056
0.941724
0.572442
0.272949
0.120093
0.732904
0.978745
0.112021
0.091997
1.159486
1.217287
0.491349
1.347366
1.936350
1.692045
1.568670
3.204139
3.913541
4.114892
6.247853
6.141139
6.661140
6.761277
5.849126
5.353638
3.356221
1.862326
0.833641
-0.561570
-0.087100
-0.906284
-1.109427
-2.878502
-1.998182
-0.921472
-1.234037
-0.648188
-0.989285
-0.274355
-0.479768
-0.187807
-0.402763
0.019873
0.063779
0.565256
0.542303
0.614496
0.058759
0.013881
0.622212
0.039135
0.221551
0.415764
0.834956
0.315590
0.734221
0.447947
0.421304
0.791825
0.111571
0.166490
0.566317
0.457996
1.741674
1.575353
1.733048
1.668728
2.391373
3.530787
3.709417
3.082204
4.379158
3.299633
3.294880
2.157302
2.258010
0.989996
1.342007
0.295820
-0.062032
-1.150691
-0.589735
0.009885
-0.357763
-0.902359
-0.880931
-0.542105
-0.138339
0.639737
0.294355
0.098892
0.827845
0.379380
0.414241
0.834949
0.339920
0.902217
0.277614
0.664511
0.604654
0.619965
0.714766
0.078458
0.455464
0.472352
0.012742
-0.061237
0.963272
0.710671
0.650476
0.371594
1.019216
0.521719
0.535853
1.603029
1.315242
1.052323
1.246520
1.260114
1.622324
1.505251
2.201371
1.883676
1.315305
0.564803
0.301000
0.255035
-0.483116
-0.346017
-0.679948
0.060258
0.463016
-0.936612
-0.213691
-0.832581
-0.169631
0.698664
0.091088
0.660327
0.681337
0.566987
-0.005464
0.670766
0.705347
0.054437
0.333857
0.240195
0.143621
0.586288
0.829717
0.917979
0.338199
0.659901
0.663394
0.640800
0.904326
0.243758
0.283321
0.050967
-0.000520
0.502050
0.681865
0.563258
0.675003
0.844926
0.941815
0.498837
0.909086
0.709712
0.820119
0.694025
0.520183
1.287372
1.325597
0.905686
0.874126
0.088155
0.262975
0.103911
1.008890
0.922161
0.683264
-0.579689
0.369459
-0.058197
0.487748
0.313990
0.590411
0.120495
0.577844
0.924436
0.678271
0.386394
0.510402
0.290423
0.018409
0.102048
0.504796
0.581960
0.719004
0.309771
0.816645
0.912683
0.115571
0.722097
0.811709
0.975807
0.961406
0.950930
0.979666
0.720294
0.831565
0.863872
0.929204
0.527113
0.465138
0.772939
0.104133
0.354039
0.892942
0.714842
0.295281
0.594089
0.105083
0.802563
0.701662
0.225842
0.935375
0.476505
0.599116
0.477358
0.526032
0.088519
0.190342
0.449943
-0.132501
-0.096519
0.797292
0.185494
0.246932
0.697616
0.939920
0.173089
0.599119
0.890718
0.721797
0.085852
0.646113
0.803670
0.401573
0.489424
0.469676
0.648018
0.011007
0.522075
0.404864
0.823013
0.592883
0.263759
0.139814
0.245651
0.820062
0.744792
0.693470
0.310643
0.486935
0.884980
0.634528
0.243379
0.076390
0.904646
0.924097
0.999412
0.060836
0.566231
0.933145
0.825648
0.652083
0.519490
0.575910
0.012431
0.042737
0.017852
0.598365
-0.171661
0.415469
-0.099062
0.905436
0.216687
0.327283
0.999500
0.416589
0.168940
0.765887
0.131653
0.501178
0.274417
0.038229
0.135705
0.500898
0.097721
0.023453
0.424995
0.097133
0.084289
0.948211
0.987263
0.866922
0.557279
0.523506
0.453226
0.567921
0.549173
0.509205
0.226580
0.585846
0.087259
0.290104
0.445533
0.258196
0.617387
0.445033
0.674785
0.786326
0.210920
0.806438
0.287504
0.485337
0.844667
0.423209
0.986235
0.942388
0.446662
0.411230
0.039521
0.530952
0.359441
0.026784
0.397874
0.916720
0.550290
0.851100
0.484641
0.099463
0.360305
0.711222
0.685309
0.447564
0.001326
0.130842
0.705760
0.618712
0.575875
0.380544
0.405038
0.786796
0.186983
0.692542
0.272133
0.031649
0.115752
0.258368
0.974037
0.562414
0.669598
0.013558
0.093366
0.029040
0.040343
0.491240
0.945760
0.590633
0.342340
0.430401
0.690096
0.702645
0.141623
0.375405
0.150208
0.142949
0.506247
0.855968
0.761661
0.082122
0.236512
0.166699
0.868918
0.423495
0.859242
0.141051
0.455145
0.974993
0.399420
0.429182
0.537407
0.069018
0.442740
0.630773
0.098057
0.483083
0.122013
0.043817
0.073716
0.464353
0.474219
0.763811
0.166998
0.615842
0.139216
0.317206
0.758790
0.645464
0.173174
0.520451
0.727586
0.409687
0.687151
0.596504
0.833182
0.546393
0.737555
0.288326
0.521386
0.136975
0.717508
0.058793
0.205993
0.160248
0.689566
0.304050
0.643331
0.811579
0.347868
0.717047
0.275933
0.822086
0.480859
0.442931
0.437928
0.620075
0.760137
0.196719
0.265539
0.933311
0.717170
0.993125
0.342998
0.404321
0.589629
0.176179
0.950714
0.327184
0.464505
0.472099
0.464159
0.182014
0.530892
0.670152
0.342262
0.220459
0.974202
0.985593
0.032038
0.322070
0.702641
0.307971
0.144156
0.183500
0.750902
0.582084
0.803575
0.511039
0.778803
0.069114
0.444350
0.495973
0.062239
0.787347
0.900294
0.651868
0.963527
0.851007
0.979052
0.428032
0.323107
0.443211
0.610046
0.853999
0.113363
0.952308
0.074458
0.087565
0.937901
0.106496
0.409635
0.640542
0.414467
0.553791
0.824041
0.165369
0.135875
0.627616
0.676407
0.914678
0.696730
0.120757
0.410651
0.758969
0.908104
0.310944
0.410836
0.871631
0.161952
0.389888
0.299663
0.485059
0.833099
0.909708
0.339058
0.946461
0.862016
0.413516
0.034026
0.799917
0.520012
0.443661
0.440458
0.934478
0.997451
0.264500
0.099847
0.133326
0.892116
0.776254
0.048004
0.588846
0.897011
0.458655
0.347815
0.805115
0.769599
0.758651
0.676745
0.931551
0.148539
0.976408
0.416609
0.981637
0.886116
0.755667
0.928099
0.748131
0.169183
0.962125
0.548048
0.689194
0.405786
0.988506
0.623672
0.403238
0.253006
0.723519
0.536564
0.145122
0.499773
0.584568
0.733968
0.396784
0.043222
0.081783
0.201899
0.812821
0.840433
0.878644
0.744372
0.988972
0.855051
0.160982
0.970610
0.741167
0.916649
0.898709
0.489298
0.085831
0.860834
0.037347
0.775025
0.266620
0.025853
0.398698
0.669857
0.278859
0.122217
0.206421
0.423981
0.621990
0.790989
0.157949
0.018774
0.834212
0.239732
0.220673
0.647033
0.080166
0.099316
0.391405
0.069138
0.954368
0.552387
0.039747
0.695535
0.469035
0.938456
0.184833
0.554866
0.799290
0.222180
0.329892
0.065910
0.248033
0.728589
0.735767
0.526892
0.850806
0.942188
0.950873
0.472796
0.733178
0.108823
0.491571
0.567389
0.348555
0.712244
0.214422
0.428720
0.811560
0.605827
0.497858
0.765928
0.158214
0.537606
0.461462
0.627250
0.476062
0.646295
0.182116
0.275352
0.868475
0.512008
0.341262
0.116508
0.240597
0.077029
0.643400
0.091403
0.019217
0.594273
0.564199
0.752395
0.703096
0.055770
0.319784
0.051651
0.768013
0.534206
0.480371
0.579573
0.140033
0.978229
0.345501
0.298248
0.515835
0.806963
0.925497
0.991897
0.453259
0.107613
0.267249
0.321734
0.619621
0.608510
0.438242
0.860217
0.685539
0.081642
0.951620
0.704757
0.675915
0.515819
0.457151
0.379011
0.571589
0.776935
0.430662
0.339602
0.311141
0.911033
0.919176
0.451175
0.889262
0.264676
0.749422
0.405098
0.071640
0.674919
0.396995
0.524898
0.782533
0.664243
0.846632
0.402153
0.272754
0.284874
0.262371
0.958293
0.366516
0.213991
0.663049
0.042431
0.729810
0.120201
0.421442
0.301399
0.897136
0.852104
0.641001
0.208278
0.763137
0.560176
0.659452
0.652399
0.824853
0.408875
0.057497
0.896493
0.083794
0.454491
0.421391
0.866327
0.118735
0.268023
0.268480
0.391488
0.552897
0.530851
0.349781
0.919413
0.744841
0.012830
0.961843
0.474651
0.133031
0.383285
0.776050
0.030167
0.098813
0.417051
0.238445
0.998525
0.977227
0.897897
0.636744
0.787900
0.292591
0.694240
0.684392
0.390566
0.162912
0.119964
0.256892
0.281647
0.387987
0.525373
0.673135
0.940884
0.056223
0.022916
0.860296
0.801065
0.035746
0.822139
0.275716
0.168778
0.205424
0.051766
0.198945
0.440813
0.468817
0.437390
0.439338
0.446045
0.335287
0.090262
0.248125
0.642059
0.798683
0.946698
0.032625
0.961596
0.066662
0.289518
0.243243
0.454649
0.814890
0.884301
0.062367
0.525653
0.608748
0.152591
0.619772
1.203939
0.301059
1.044461
0.255880
0.309780
1.007126
0.400330
0.861837
0.526044
0.729427
0.139883
0.993213
0.194131
0.332496
0.379774
0.886475
0.052488
0.109345
0.790125
0.014084
0.176006
0.079642
0.239399
0.612727
0.894532
0.173704
0.026187
0.765645
0.112998
0.282016
0.437823
0.088038
0.359984
0.385717
0.231855
0.643376
0.385378
0.574618
0.367581
0.853855
0.354771
0.531124
0.743456
0.470211
0.752853
0.609234
-0.316719
0.107782
-0.220772
0.011151
1.166575
0.530939
0.391157
0.518523
1.797309
2.053424
1.099791
1.358989
1.053486
0.612465
0.465091
0.214420
0.692354
0.693089
0.794795
0.957584
0.186856
1.054787
0.484603
0.508245
0.772040
0.596425
-0.013822
0.517686
0.084564
0.811765
0.489368
0.312275
0.425025
0.560197
0.360570
0.531144
0.776571
0.458048
0.639973
0.623601
0.450057
0.922505
0.496818
0.207712
0.318035
0.538358
0.378536
0.728460
0.192165
0.602752
0.247838
-0.126673
0.859342
0.508301
0.849854
0.604141
0.426853
1.297555
1.057021
1.695913
1.548415
1.393988
0.950971
0.455402
0.274209
0.073520
1.167914
0.545116
1.093466
0.716408
0.769367
-0.145782
0.356933
0.133064
0.069838
0.059068
0.524637
0.454573
0.534154
0.050282
0.985518
0.187936
0.195212
0.500404
1.068317
0.334416
0.495949
0.420429
0.243745
0.856141
0.987332
0.995299
0.736162
0.896970
0.426496
-0.004852
0.143572
0.310141
0.018194
0.321312
1.225158
0.622174
-0.287853
0.510089
-0.166613
0.717020
0.531061
0.894815
-0.099786
0.401763
-0.014257
-0.714613
0.312113
-0.248568
0.172814
-0.468756
0.632932
0.680125
1.504740
1.277923
0.382999
1.185374
1.663116
1.265953
0.159075
-0.039564
0.202659
0.870017
0.158103
-0.104409
0.519096
0.439933
0.362336
0.118253
-0.104595
-0.089932
-0.183129
0.453673
0.769301
0.283175
0.440560
0.469454
0.289374
0.621719
0.531667
-0.235194
0.680776
-0.354812
-0.525156
-0.598409
-0.193151
-0.620910
-0.412505
-0.220508
-0.055634
0.739052
0.827609
0.426258
1.650971
1.108873
-0.418991
-1.025433
-0.543069
-0.827778
-1.234147
-0.224379
0.549281
0.990554
1.920168
0.992301
1.700720
1.921693
2.982631
4.302654
3.811821
2.998916
3.901447
3.005091
1.859142
1.227964
0.391781
0.355932
-0.638191
-0.189346
-0.069878
0.267031
0.777883
0.382628
0.808718
0.854973
0.920461
0.372018
0.176123
0.013728
0.482107
-0.512373
-0.168035
-0.288856
0.106603
-0.564257
0.045785
-0.189907
0.106931
1.426478
0.612265
2.404401
1.860765
0.968459
-0.488752
0.378910
-1.505731
-0.741011
0.382158
-0.702771
1.081422
0.016140
2.594200
3.346632
3.075758
3.121813
3.278057
3.813944
3.832423
5.172561
7.158548
7.774698
6.457548
6.039302
3.942371
2.912123
0.855566
0.922907
0.741302
-0.142879
-0.232414
0.626869
-0.081725
0.383431
0.735031
0.462479
0.608857
0.347960
0.542363
0.395956
0.293394
-0.301531
-0.945259
-1.280983
-0.004209
-1.092682
-0.241448
-1.250900
-0.146314
0.559755
1.294033
2.094515
2.399278
2.106367
0.322477
-1.698460
-2.073952
-1.711028
-0.610224
-0.319160
0.816317
1.245029
1.102782
1.482738
3.492268
5.159546
4.935543
4.901156
5.791387
7.397709
7.404574
6.777808
6.276486
4.955728
2.603633
3.879832
0.253651
-0.829276
-1.710320
-0.801107
-0.423879
-0.725797
0.342794
0.468984
0.368006
0.078427
0.303381
-0.140222
0.483564
0.175272
0.491280
-0.445990
0.485104
-0.715665
0.320175
-1.370337
-1.510472
-0.461221
-0.313026
-0.893392
1.528113
3.113332
2.516223
0.740085
0.781323
-1.219934
-3.703759
-0.507905
0.456917
-0.499471
-1.007654
0.012352
1.631050
3.764261
6.336865
6.755122
6.183840
9.159351
9.487139
9.113802
6.851633
7.418957
8.089755
7.547014
4.225624
2.873623
1.076126
-0.512292
-1.561368
1.236079
-0.382892
-0.112594
-0.230965
0.039179
0.663295
0.464810
0.827630
-0.231431
0.483667
0.744328
0.068656
-0.615805
-0.049308
-0.652321
-0.760995
-2.422386
-1.559618
-1.676794
1.661438
1.906153
3.304487
4.383555
4.731023
4.129856
1.187967
1.256724
-0.071452
-0.291287
-0.071314
-0.750669
0.828173
1.441099
3.814978
5.438987
9.052619
10.163047
9.276410
9.554638
7.228891
8.149717
9.286377
8.042940
6.337400
4.698541
4.714074
3.122755
1.426690
0.610122
0.619363
-0.052099
0.420989
0.059797
0.867165
0.963773
0.669833
0.752080
0.544142
0.078279
-0.080682
-0.216804
0.489146
-0.100098
-0.046031
-0.295314
-0.767643
-2.649587
-1.289471
-0.961302
-0.489034
2.062962
2.884972
5.176054
4.589605
3.438824
-0.259227
-0.391188
0.338218
0.312115
0.072633
1.179866
1.560736
5.848294
7.932387
9.936893
12.649423
12.063981
10.924987
9.735407
8.957922
7.097313
6.502707
7.499657
5.084700
2.624599
2.803669
4.315011
1.432404
-0.068247
-0.091903
-0.611654
0.313814
0.001551
-0.089302
0.248480
0.291569
0.176910
0.618806
-0.203175
0.028958
-0.240841
-0.403599
-1.096547
-1.684041
-0.849881
-0.948519
-0.689216
0.794125
-1.415083
-0.160236
1.210590
1.686352
5.558352
4.877064
6.222397
5.985066
3.912976
4.878949
4.556573
3.873061
4.522062
3.942941
8.495737
13.881049
15.116381
14.625945
15.822979
13.728174
11.588763
9.992762
11.067491
8.507227
5.731339
4.876482
3.466260
1.548106
3.796315
1.982688
-0.946477
-0.106356
-0.835515
0.428007
-0.425848
0.401246
0.027620
0.360932
0.000957
0.790759
0.717858
-0.044843
-0.460358
-1.037557
-0.919568
-1.437355
-1.495710
-2.551710
-1.332824
-3.209217
0.138239
2.541339
3.631673
3.062004
4.660444
7.371724
7.150778
6.336153
4.738400
4.261399
7.205021
8.113374
7.280029
9.554455
11.711951
15.285660
15.763394
15.931559
16.775162
13.263405
14.385176
12.778986
10.251230
9.199053
5.816533
5.085175
6.236147
3.987419
3.251831
1.100292
0.629224
0.466590
-1.059456
0.472200
0.212621
0.177075
0.166550
0.972754
0.151647
0.623010
0.126224
0.105797
-1.338197
-0.987944
-1.763875
-2.307270
-1.614397
-1.495691
-2.147956
-2.366569
-0.614438
0.379566
0.325922
2.056755
4.761406
7.785390
7.370560
8.264110
7.082224
5.599581
5.472886
6.393206
9.364312
11.249594
10.879380
13.874974
15.041879
15.619393
17.111374
12.368829
10.754037
9.656584
11.137650
9.434339
7.078620
4.979533
5.951845
2.521019
1.385420
1.055948
-0.277061
1.362841
0.827247
1.160884
0.301716
0.683975
0.538081
0.220739
0.706750
0.375837
0.179110
-0.183845
-0.621733
-0.867538
-1.900191
-2.644392
-0.799536
-2.376500
-3.048318
-2.999674
-3.359610
-0.521436
-2.226144
1.042264
2.609818
6.632185
5.252333
3.370977
3.372238
5.252600
4.682194
6.700581
10.348249
13.533722
12.879084
12.619759
16.563178
15.610104
16.242239
14.780195
10.862862
8.811242
6.357837
6.152090
5.310917
3.532997
2.050143
1.893178
1.123774
0.024993
0.026346
0.677964
-0.830997
0.813569
1.321656
0.434867
0.053242
0.836127
0.555243
0.152790
-0.017635
0.075891
0.113358
-1.205214
-1.863171
-2.194373
-1.987982
-1.930307
-3.108577
-3.976672
-5.365035
-5.503693
-2.812692
0.103182
2.481687
2.556247
2.237911
3.678238
3.442549
3.551770
4.564803
6.081681
11.135215
13.048807
13.387091
14.302662
16.317551
14.786484
15.037864
12.725154
10.254515
9.263148
7.654295
6.930595
5.420557
3.418557
3.455288
3.026299
0.577950
0.158565
-1.131492
-0.254270
0.416322
1.524255
0.698643
1.061779
-0.009169
0.026009
0.336866
0.485021
-0.019931
-0.008837
0.372610
-0.694341
-2.151453
-2.187952
-3.173458
-2.527523
-2.897994
-4.441046
-5.174377
-4.475590
-4.253195
-2.144835
-1.547522
1.077592
-0.787174
0.729611
-0.186906
1.940405
2.858542
4.373443
10.336169
15.903508
18.019912
15.344214
15.546021
14.549157
14.123081
8.485511
6.646464
5.870173
5.065923
2.903173
4.231408
2.492144
-0.414899
1.048409
0.675187
0.197038
-0.780255
-0.089567
0.675983
-0.659350
0.206401
0.490213
0.658056
0.194058
0.217549
0.067583
0.149248
-0.034408
-0.292734
-0.963091
-1.889366
-0.981675
-2.802247
-3.755086
-3.770689
-5.993094
-4.518090
-5.264071
-3.283321
-2.680617
-3.567149
-2.956005
-2.086139
-3.154649
-3.261189
-3.347146
-1.036742
1.248175
11.795866
19.665933
19.648475
17.871451
16.993660
17.097959
14.373806
9.255101
4.249900
3.990914
1.937935
2.222729
2.516971
0.444491
-0.509454
-0.882082
-0.436759
-1.944776
-2.558940
-0.804267
0.551594
-0.126124
0.634981
0.141138
0.258644
0.604559
0.364069
0.099089
-0.038028
0.239636
0.391007
-0.492419
-1.449052
-1.283812
-2.597848
-3.051806
-4.575603
-3.948716
-5.508329
-5.940907
-3.949598
-4.006518
-4.447045
-2.076600
-3.873008
-5.712001
-8.752083
-9.745572
-11.768060
-2.790058
10.047997
18.176991
22.746858
23.609431
23.138018
21.994351
13.507815
8.825954
3.785414
1.814936
0.808370
0.201600
0.925392
-0.841319
-2.122305
-3.779754
-3.732602
-2.846119
-4.196648
-2.655306
-0.228225
-0.441811
-0.264824
-0.014740
0.734926
0.548479
0.670332
0.366061
0.622825
0.645272
0.298021
-0.142120
-0.923417
-1.197652
-2.270348
-2.825123
-4.690876
-5.484086
-5.242996
-3.599013
-3.632205
-4.529637
-1.320195
-2.204513
-5.337095
-8.086567
-14.949002
-16.016435
-15.672530
-8.794922
3.780662
16.756200
22.106691
25.543750
23.545232
23.432888
16.236195
7.097114
1.382382
-3.629268
-4.937495
-4.297336
-3.575801
-4.482921
-5.584986
-6.731103
-7.346649
-6.131881
-5.979637
-4.135485
-2.646188
-0.245531
0.095926
0.430025
0.930583
0.686156
0.336880
0.253167
0.726864
0.643497
0.331031
0.673099
-1.024031
-0.966823
-2.400113
-3.393402
-4.616296
-4.261792
-5.847768
-4.856703
-3.843107
-2.747595
-0.406997
-2.015839
-5.576960
-10.219865
-16.691900
-20.364408
-20.615933
-15.405365
-1.426189
15.689942
23.490139
26.151834
23.774961
22.176357
14.730092
9.390091
1.437234
-5.595284
-7.439581
-7.744017
-5.563383
-5.685895
-7.040448
-7.107217
-8.796020
-7.820315
-7.279433
-4.845129
-2.892790
-0.338676
-0.077963
0.683262
0.090444
0.042327
0.895385
-0.045686
0.081777
0.229605
0.634411
0.593904
-0.300260
-1.092258
-1.562115
-3.709966
-3.113508
-3.516766
-5.028735
-4.425412
-2.412328
-1.821245
-2.087145
-0.793069
-4.026316
-10.526774
-15.436410
-20.317107
-22.343171
-18.565156
-4.885849
13.892693
22.062660
27.536665
26.682394
21.197383
13.715989
5.286259
-1.511455
-9.458024
-11.435105
-13.015750
-9.182436
-7.993495
-9.171210
-6.971294
-9.136352
-7.997058
-7.089137
-3.708185
-1.493549
0.029615
0.217492
0.087306
0.064087
0.181328
0.290779
0.378978
0.651161
0.154557
-0.016659
0.151889
-0.394216
-0.986141
-1.984652
-2.448888
-2.515820
-3.702575
-4.076918
-2.494838
-2.433672
-1.912201
-2.070770
-1.678104
-2.836138
-5.726700
-10.609780
-17.149238
-19.823434
-15.721484
-4.833521
13.602822
20.824999
27.993872
24.749586
19.381667
12.237550
3.295623
-2.608450
-11.249019
-12.720182
-13.763139
-12.097154
-9.534902
-8.215600
-8.436221
-8.034153
-6.166863
-2.723186
-1.301099
0.142355
1.816340
0.842057
0.265161
0.031148
0.216796
0.616275
0.800756
0.225512
0.386456
0.343902
0.875316
0.074169
-0.776064
-1.361280
-1.586313
-1.212492
-2.658733
-3.108005
-2.587627
-0.805383
0.889935
1.618753
1.965697
-0.062791
-2.738363
-6.842947
-14.052771
-15.297361
-10.770197
-1.844266
9.313411
19.031339
25.647704
22.166993
17.372137
8.210004
0.019455
-5.959045
-13.694297
-13.295143
-14.266237
-12.104241
-7.779254
-6.181083
-6.243992
-4.288358
-1.949759
-2.031219
-0.398978
0.874743
1.894332
0.733894
0.864295
0.741331
0.653502
0.465249
0.686626
0.188017
0.402683
0.859304
0.538724
0.449992
-1.260970
-1.331814
-1.974211
-1.737106
-1.822225
-1.780011
-2.547761
-1.148939
1.127087
2.738906
1.555604
2.491631
1.013657
-2.359593
-11.467593
-12.255795
-7.866766
0.410324
10.794965
20.883651
23.433378
21.006138
13.895067
4.023592
-6.369594
-6.678703
-14.998244
-12.586665
-12.818890
-9.442850
-5.988974
-2.520365
-1.711658
-0.899903
-1.810168
-0.413810
1.384202
2.041562
1.908799
1.532439
0.928867
0.960509
0.641626
0.534352
0.052563
0.340547
0.186200
0.533299
0.312043
-0.365165
-0.067918
-1.071867
-1.802955
-1.163040
-2.578847
-1.600514
-2.090616
-1.256310
1.161296
2.999780
2.283122
3.344036
2.536250
0.481060
-7.884949
-9.986300
-4.928816
5.478183
14.589593
21.733573
20.882758
18.473041
8.570792
-1.451575
-9.011739
-10.895921
-13.967204
-14.447924
-10.988648
-6.988987
-2.563571
0.143836
0.211275
0.689787
0.775847
0.526112
2.311883
1.754025
1.537427
1.167746
1.032913
0.744152
0.177188
0.093138
0.238810
0.142361
-0.024836
0.159061
0.423822
0.261652
-0.904838
-1.281474
-1.185282
-1.349657
-2.229800
-0.574218
-1.109516
-0.960277
-0.414168
1.307960
1.496271
1.260778
3.599952
0.862991
-1.668022
-4.461786
-2.043105
9.470104
18.791615
19.997440
18.834604
13.151123
2.973372
-5.783268
-11.283191
-12.760729
-15.105267
-12.382580
-8.038296
-4.108028
-1.119898
2.148218
2.690034
0.914375
0.593768
0.754959
1.988324
2.387766
2.126149
0.886193
0.836808
0.348339
0.303839
0.430644
0.912119
0.279026
0.035409
0.312358
0.660347
0.338680
-0.264638
-0.810821
-1.681865
-2.413833
-1.689457
-0.130700
-0.408077
0.021601
-0.353767
-0.911224
0.368917
1.179939
2.397081
2.609691
0.034790
-1.478370
0.281305
12.108436
17.889506
15.923663
14.822531
6.857305
-0.755267
-8.085599
-13.442739
-15.653765
-13.848182
-11.072514
-6.254551
-2.846505
1.820161
3.892842
3.043216
1.892594
1.502844
1.469032
1.515174
1.863549
1.746942
1.300967
0.308198
1.014519
0.944836
0.455634
0.873818
0.286155
0.293904
0.561010
0.120030
0.560309
-0.083545
-0.576807
-1.911056
-1.802691
-0.919351
-0.112039
-2.846413
0.367671
-0.275112
-1.363039
-1.133112
0.914829
0.331930
2.296548
-0.558273
-0.755897
1.348568
12.005834
17.309585
15.405962
12.344025
7.177017
-0.916122
-10.281304
-13.608175
-16.817484
-13.284771
-15.089099
-9.688606
-2.556436
2.609743
5.699044
3.075405
2.037961
2.221241
1.443366
1.579056
1.917511
2.092681
1.260108
0.630231
0.457959
0.500848
0.742443
0.624070
0.070161
0.623144
0.057128
1.009938
0.095901
-0.268184
-0.528064
-1.769244
-1.446940
-0.722072
-0.966721
-2.858870
-0.957907
-0.027542
-1.230872
-2.668350
-2.478476
-1.500671
-0.004723
-1.759984
-2.071757
2.440880
9.959050
14.713496
14.553393
11.845952
6.848318
-1.517670
-10.133425
-12.279777
-18.316901
-15.383182
-13.662434
-11.605728
-2.345730
1.390878
3.044858
3.271494
3.646279
2.124573
2.829037
1.616271
0.967775
1.849940
0.760738
1.017493
0.769615
0.173862
0.173299
0.536427
0.095406
0.324454
0.337435
0.195973
0.073716
0.031031
-0.502091
-0.350803
-1.322084
-0.458801
-2.231341
-2.236646
-3.027093
-0.877965
-2.476717
-4.099061
-3.937400
-4.247865
-4.465481
-6.502577
-5.119888
-0.106107
7.709499
14.529281
14.186022
14.008325
8.906467
-2.456408
-9.713246
-13.667480
-18.835232
-14.520785
-11.746039
-13.694557
-2.771705
1.191062
2.438231
2.578223
1.951468
2.726218
2.382480
1.511160
0.520303
2.014177
0.691596
0.703166
0.200142
0.746396
0.995275
0.760836
-0.076806
0.206513
0.359502
0.839126
-0.012672
-0.068246
-0.742071
-0.532042
-0.298119
0.411506
-0.898594
-2.005850
-1.982962
-2.898816
-3.585229
-4.250896
-4.530862
-7.407879
-7.629156
-9.747019
-7.542745
-0.809504
6.170819
14.166831
17.433058
16.709470
9.790990
-0.342705
-6.938540
-14.385129
-18.294218
-14.852201
-11.071749
-10.822400
-6.606507
-0.111986
1.344764
1.037328
2.871702
3.026013
1.602202
1.744909
0.684924
1.098447
0.668227
1.077291
0.043978
0.830867
0.099554
0.477308
0.852060
0.030447
0.242779
0.277114
0.652470
1.027349
0.469326
0.165781
0.387317
1.088952
-0.017949
-1.068193
-2.725299
-3.908001
-3.663734
-4.945950
-6.667786
-6.949465
-10.355492
-10.167332
-9.079195
-0.919786
5.948520
14.191419
19.372351
17.849788
9.992138
1.189056
-4.069026
-12.827979
-17.577790
-13.895524
-10.332141
-9.313776
-5.460806
-0.741957
-0.394648
1.289380
3.152104
1.365802
0.137894
1.863673
0.929100
1.088003
1.170241
0.481297
0.693782
0.963799
0.930858
0.985132
0.701954
0.217230
0.980726
0.382069
0.527252
0.635057
0.297208
1.062218
0.949053
1.884321
1.364048
-1.026547
-2.013993
-1.914572
-3.064399
-4.019843
-5.999258
-7.218377
-10.330653
-10.331261
-8.964249
-0.950724
4.770515
13.096147
17.585469
20.057036
13.216716
2.462219
-2.126815
-10.193988
-14.003928
-11.770468
-12.598903
-9.666310
-5.911596
-1.196469
-0.468271
0.755082
3.459506
1.162158
0.789782
0.436039
0.474782
0.033978
0.364655
0.141847
0.064032
0.722451
0.218527
0.839191
0.065129
0.386059
0.562798
0.245523
0.755797
1.440942
0.396392
1.623874
1.575785
1.191703
1.705537
0.890443
-0.108602
-0.330275
0.120569
-1.539919
-5.090839
-7.250716
-9.290821
-10.965706
-9.641669
-1.017593
5.741411
12.435687
15.871722
20.793270
13.100537
3.121267
-2.690380
-7.861836
-12.128054
-10.960777
-11.281975
-8.882576
-5.306254
-2.107052
0.534163
0.666346
1.855640
1.410812
-0.767698
0.098145
-0.124985
0.482210
-0.119681
-0.235216
0.518709
-0.026727
0.037832
0.793202
0.804001
0.513700
0.837931
0.238910
1.155520
1.119522
1.375317
1.424665
1.475059
2.978359
2.278724
2.191452
1.484604
1.665713
2.451557
0.099611
-1.356641
-6.602915
-7.577307
-9.475228
-8.038039
-2.455873
6.361524
14.392009
16.703995
16.832671
13.046011
5.415316
-1.852725
-7.373361
-11.310786
-11.444072
-9.698479
-9.458029
-4.062003
-0.892396
1.072413
-0.176395
1.805919
1.235400
-0.158657
-0.235632
-0.620975
-0.064378
0.324616
-0.220001
-0.309996
0.615149
0.861702
0.186679
0.982038
0.904200
0.614037
0.263479
1.306581
1.150752
1.142723
2.238044
2.263183
2.511999
2.554902
1.872515
2.450452
3.441071
3.398316
1.275918
-0.418138
-4.696948
-5.798821
-6.497287
-5.910321
-2.894072
3.236858
10.259562
16.803270
18.499789
13.719485
5.108101
-2.880081
-3.321450
-10.021205
-11.221121
-8.656179
-5.373343
-2.341689
-1.289742
0.852916
1.190476
1.691784
1.290767
0.048852
-0.546596
-1.077499
-0.785040
-0.419295
0.048527
-0.101137
0.598155
0.555919
-0.040491
0.422786
0.821841
0.673006
0.219706
1.093999
1.438380
1.401889
1.756431
1.512307
3.038387
2.268994
2.436079
3.511461
4.431648
5.343507
3.450410
0.697798
-2.471970
-6.103604
-7.908787
-3.194470
-0.657638
3.836690
10.321662
16.267530
21.624085
17.419038
11.178313
-0.302581
-3.524611
-5.217303
-4.336123
-7.826212
-4.981939
-2.424899
-0.288875
-0.539487
0.470868
1.046570
0.734997
-0.497918
-0.517013
-0.922375
-1.460303
-0.840682
-0.908815
-0.635826
0.328165
0.136708
0.528890
0.311785
0.332821
1.150070
0.320690
0.000464
0.602781
1.073843
1.739002
1.618015
2.179034
1.808103
2.782504
3.261601
3.638206
6.267226
2.853380
-0.105109
-0.605154
-3.415793
-7.373488
-0.685547
-0.056740
5.529055
11.831803
17.684108
21.341173
20.031805
14.685857
4.040218
-0.428925
-2.935650
-6.270507
-6.915700
-5.184949
-1.448176
-0.716343
0.710656
0.428273
0.168111
-0.296320
-0.307359
-2.030556
-1.486873
-1.745335
-1.872043
-1.047818
-0.455846
-0.121947
0.025304
-0.022895
0.471650
-0.036511
0.171295
0.873463
0.629797
0.779579
1.122492
1.097292
-0.576491
1.473744
0.284917
1.866419
1.956188
5.192378
5.250353
2.211295
0.963531
-2.077101
-1.162808
-2.791454
2.768894
0.787164
7.154100
12.356650
19.193723
21.640865
18.834592
14.820623
6.800258
3.115183
-0.925654
-3.964795
-5.645143
-3.467725
-2.315796
-1.948946
1.187229
0.983244
0.627395
-1.853581
-1.669716
-1.676798
-1.669060
-1.970383
-1.330284
-0.361856
-0.749251
-0.328547
0.676283
0.069812
0.884725
0.254553
0.953326
0.939421
0.974217
0.924349
1.192468
0.201583
1.073198
-0.223129
-1.307019
1.127817
1.681808
3.763480
4.824518
4.873980
3.439940
0.180361
0.581686
-0.335308
4.436828
4.487366
9.467957
11.622574
15.188081
19.934256
18.606281
15.200459
7.856107
4.574404
0.130373
-2.185199
-4.867393
-3.799933
-3.829228
-2.624730
0.320936
-1.300195
0.372607
-2.569197
-2.303866
-0.866869
-2.300018
-2.527876
-1.540454
-0.547590
-0.324482
-0.309286
0.261146
0.296278
0.803123
0.183138
0.416437
0.769888
0.247633
-0.124539
0.537069
0.352697
0.906420
0.258797
-0.914535
2.740685
2.419646
2.111101
1.736620
0.101262
1.816209
1.208260
5.382199
5.127202
4.120776
8.032585
10.180783
9.297931
12.853040
14.857015
15.348727
12.402289
5.609318
2.301655
0.716756
-0.296321
-1.815947
-4.965109
-5.645009
-2.725024
-3.374910
-2.534508
-1.706813
-2.716647
-4.281323
-2.167680
-2.695054
-1.402574
-1.791050
-0.901908
-0.752528
-0.055393
0.359487
0.057165
0.068030
0.792867
0.154903
0.777068
0.704335
-0.328333
0.595943
0.489102
-0.577995
-0.134602
0.698969
1.724002
1.026218
0.820298
0.860645
-0.726878
-1.917355
-1.820429
4.572332
4.354727
4.453610
7.595103
8.446841
6.701115
12.170185
7.926408
9.912436
7.662999
1.504175
1.403690
-2.110103
-0.918510
-2.283735
-4.600607
-5.199365
-4.217381
-4.124226
-1.319771
-2.108629
-2.700746
-3.317179
-3.214887
-2.692789
-2.435783
-1.867758
-1.362363
-0.605140
-0.385036
-0.030451
0.200930
0.564988
0.835496
0.247155
0.673176
0.417335
0.454638
0.336064
0.098937
-0.800400
-1.361361
0.552128
0.403172
0.475311
0.259178
-0.373850
-0.942637
-1.879877
-0.900589
0.087203
5.623947
4.850654
4.622326
3.640915
2.931584
5.400939
3.581116
7.092650
4.917926
1.514009
-0.682574
-0.505454
-0.041483
-0.844354
-2.955741
-3.261183
-5.052707
-4.038122
-3.254401
-3.937799
-2.204292
-3.293754
-3.831505
-3.693371
-1.657149
-2.127439
-1.371555
-0.813048
-0.732348
-0.222698
0.188656
0.777266
0.667294
0.674328
0.707807
-0.192687
0.165945
1.428585
0.766765
-2.022486
-2.101321
-2.436476
-1.045891
-0.208297
-0.238620
-1.788194
0.211255
-2.148329
-1.113013
-0.225684
4.023878
3.987803
2.566765
0.026714
-1.260915
-3.590948
-2.741801
0.916716
-0.572188
0.174534
0.662993
0.308225
-0.579531
-4.150602
-3.991689
-3.671559
-4.802473
-3.236304
-5.791266
-4.804393
-3.253150
-3.345229
-4.409210
-1.912050
-3.633941
-2.618293
-1.264688
-0.787672
-0.112036
0.411204
0.022537
0.533339
0.631993
0.696502
0.482110
0.332499
1.128248
0.502524
-0.797049
-1.972213
-3.242792
-1.107104
-2.888770
-0.981800
-0.212713
-0.787816
0.485273
-0.889788
-3.111534
0.054272
1.703065
4.837604
0.605792
-4.502023
-6.234036
-7.220345
-7.870320
-1.016792
-0.644890
-2.124773
-0.135781
0.366241
-3.097673
-2.340524
-2.918314
-4.957847
-4.950671
-4.073151
-6.267002
-6.145931
-3.120873
-3.425146
-5.068792
-3.012650
-4.180088
-2.656328
-1.128714
-1.265299
-0.726382
0.446916
0.306699
0.559327
0.465008
0.746396
0.831581
0.641142
0.404099
-0.964055
-1.252037
-2.328317
-3.024336
-3.163213
-2.975571
-4.508428
-1.145301
-0.883076
0.606517
-2.303672
-1.126247
-1.013263
-0.149266
2.388892
0.139966
-6.289807
-7.868772
-7.828581
-7.905411
-6.357633
-1.128669
-0.097472
-0.927851
0.405117
-1.027691
-2.066558
-2.158817
-5.318277
-5.518152
-4.525144
-6.516610
-6.476265
-5.717259
-2.547052
-4.728120
-3.471582
-5.011616
-2.451135
-1.755936
-1.361819
-0.009513
-0.284375
0.224692
0.489496
0.563800
0.317151
0.081669
-0.273420
0.698608
-0.207560
-2.270620
-2.058060
-2.271812
-2.287867
-5.238351
-4.292262
-4.307020
-4.771362
-3.521774
-0.144646
2.103266
-0.052823
2.293397
0.896509
-0.043579
-1.828611
-3.433835
-8.007886
-6.032011
-4.358197
-3.297598
-1.366201
-0.742334
1.042213
-0.927072
-0.244786
-2.691053
-3.017674
-4.853430
-5.795559
-8.524011
-6.562981
-6.525329
-3.526237
-3.314999
-3.645026
-3.830095
-2.972226
-1.791180
-0.982098
-0.102510
0.051289
0.687499
0.453163
-0.002783
0.887284
0.557156
0.301210
0.203839
-0.539028
-1.038627
-1.527391
-2.132796
-2.982909
-5.363012
-5.345622
-5.061441
-5.202717
-6.210361
-2.141859
-0.040732
1.142995
1.642265
-1.199888
0.463937
1.110474
-3.331312
-3.654335
-4.010175
-0.872288
-1.007359
1.261531
0.752946
1.546947
2.767271
4.226077
-2.234505
-4.530422
-4.214618
-5.961823
-9.470975
-7.925743
-6.419126
-3.995679
-3.539878
-4.844590
-2.658727
-2.059346
-1.164652
-0.836740
-0.224062
-0.253397
-0.084373
0.781706
0.710902
0.715312
0.472562
-0.064777
0.389668
0.110534
-2.539520
-1.608549
-1.250566
-3.635475
-5.584058
-6.320438
-6.062107
-5.682780
-5.514657
-3.309010
-3.103505
-0.606404
1.001224
-0.597190
-0.077651
0.510092
0.750270
0.675616
-0.421370
-0.431395
-0.428472
1.689212
3.971796
3.801292
5.193862
2.255889
-0.619729
-4.454297
-5.958730
-6.645790
-8.261195
-8.168364
-5.617229
-4.451878
-3.557436
-2.272681
-2.768242
-1.228876
-2.028468
-0.302928
0.215879
-0.092635
0.462135
0.026502
0.374400
0.804256
-0.219006
0.542345
-0.462569
-0.410960
-1.798471
-1.433087
-1.989134
-2.466557
-6.933158
-6.900838
-6.314024
-6.121135
-3.877828
-2.871647
-2.342305
-1.460264
-0.026331
2.319217
0.649162
1.431965
-0.175127
0.796632
0.890133
3.491893
1.190809
2.371107
2.952749
5.198702
3.831704
3.060077
0.011745
-3.624616
-4.518130
-5.186864
-5.884187
-4.563347
-3.993011
-3.664703
-1.951014
-2.094061
-1.623692
-1.824947
-1.250620
-0.914953
0.044348
0.264683
0.431349
0.460554
0.543038
0.831899
0.922449
-0.263088
-0.478481
-1.536697
-1.635856
-2.412930
-2.426918
-3.708985
-5.505079
-6.606115
-6.672144
-5.449619
-4.314329
-2.541302
-2.011553
-1.365968
0.998294
-0.949955
-0.607811
1.358785
-0.761431
1.733762
-0.358124
-1.308943
-1.703380
0.866049
3.818967
3.516507
3.866448
1.566033
0.469355
-1.872577
-2.733060
-3.150957
-1.682470
-2.538928
-4.031708
-1.292236
-1.886074
-0.436512
-1.216296
-1.352934
-0.378513
-0.338567
0.505609
-0.321354
0.071755
0.750297
0.820091
0.803887
0.387544
-0.077904
-0.961526
-1.145328
-1.658987
-1.280232
-2.029219
-2.631024
-3.595552
-5.793352
-6.216899
-4.367042
-3.760796
-2.633032
-0.635506
-0.853502
1.931346
1.553821
1.157446
1.319089
0.377152
-0.052177
-0.385454
-1.494450
-2.402091
-1.188616
0.255363
-0.570699
0.546125
-0.238172
0.854614
-1.736153
-2.552740
-0.394853
-0.403117
-1.474792
-2.036077
-1.122340
-1.747444
0.393690
-0.145264
-0.460028
-0.081125
-0.674261
0.470214
0.580387
0.139623
0.588080
0.139700
0.297136
0.355587
-0.155080
0.084167
-1.020154
-1.926206
-1.623689
-1.331435
-1.227689
-1.505535
-3.492300
-3.864133
-3.698813
-1.959605
-1.134226
-2.083292
-0.820675
-0.805476
1.342627
3.485238
2.251506
2.171860
0.344191
-0.384601
0.720575
0.745791
0.507749
-0.747716
2.689614
0.836328
-0.550994
0.492116
-1.264839
-2.958724
-3.388646
-3.023862
-2.214854
-0.302924
-1.838580
-0.609639
0.512218
-0.667733
-0.369507
0.192654
0.077441
0.013853
-0.096980
0.638984
0.756317
0.137118
0.293104
0.256248
0.578493
-0.356974
0.203125
-1.190703
-1.530379
-1.202659
-1.404335
-1.102582
-1.484048
-2.479726
-1.277738
-0.547324
0.462951
-0.534702
0.088376
2.493897
3.555021
3.333281
1.638772
-0.167577
1.366078
2.891835
3.527227
3.723763
2.310613
2.787179
-0.264887
2.437119
1.540158
0.532699
-1.036170
-1.899966
-3.742415
-2.004346
-2.459668
-1.366202
-1.398090
-0.469297
-0.514551
-0.377312
0.261679
-0.695196
-0.053898
0.344010
0.229855
0.665193
0.459839
0.043615
0.130072
0.789813
0.630343
0.752407
0.211757
-0.311749
-0.876171
-0.821623
-1.036435
-1.491712
-1.401421
-1.205271
-0.912378
-1.162933
0.175346
0.376991
0.178526
0.617324
0.920657
2.281626
0.814656
1.871858
2.431451
2.238304
4.271102
1.629513
1.122535
0.733371
0.225859
0.133234
-0.684801
-0.787143
-1.760061
-1.339402
-2.665918
-2.756085
-2.928117
-1.928329
-1.272378
-1.586872
-0.636571
-0.677843
-0.045875
-0.343314
0.163274
0.394842
0.846587
0.647567
0.826941
0.074970
0.281687
0.983336
0.564553
0.034545
-0.048208
-0.397169
-0.530465
-0.060754
-0.933723
-0.597195
-1.026486
-0.990654
-0.441439
0.577225
1.231205
0.393740
0.619248
0.840422
1.574590
2.007332
3.279119
3.453019
2.571400
2.367821
2.827205
2.848411
2.444035
1.547519
0.613200
-0.201872
-1.248931
-1.614496
-3.280485
-4.039407
-3.232140
-2.315890
-1.918453
-1.612316
-1.861938
-0.758618
-0.231786
-0.018534
0.538988
-0.113471
0.416259
0.585579
0.362302
0.823347
0.988194
0.025809
0.166614
0.678101
0.374988
0.698349
0.827490
-0.044371
0.179867
0.267524
0.677620
-0.064186
-0.242407
-0.100399
-0.597104
-0.227103
0.272794
0.155170
0.365717
0.848425
1.861923
1.417350
1.538052
1.407044
1.037304
1.705120
1.453432
1.373931
1.614022
1.951773
0.944375
1.416915
0.622763
0.293693
-0.466463
-1.508420
-1.480772
-1.021952
-0.984338
-0.696591
-0.470979
-0.533960
0.063693
0.825799
0.554750
0.435588
0.429389
0.419521
0.684042
0.606573
0.802515
0.294094
0.230484
0.902718
0.554021
0.307774
0.857493
0.814989
0.801322
0.397848
0.438259
0.118217
0.855375
0.058480
0.522005
0.215613
0.092671
0.966911
0.650112
0.707871
0.888257
0.344589
0.655258
1.420120
1.392286
1.649098
0.873945
0.757805
0.238290
0.514627
0.731620
0.447939
0.605328
0.228461
-0.048861
0.499549
0.127888
-0.331832
-0.392390
-0.499780
0.013499
-0.044435
0.373874
0.202936
0.154444
0.000522
0.360904
0.265848
0.784108
0.646415
0.578958
0.436950
0.692757
0.920652
0.283063
0.597793
0.842017
0.564764
0.932218
0.182904
0.530507
0.873216
0.326305
0.779413
0.015840
0.262283
0.586274
0.506027
0.258109
0.149104
0.935238
0.666852
0.469627
0.448594
1.050620
0.711085
0.373882
0.080796
0.771406
0.917659
0.757584
0.333516
0.321091
0.460705
0.175330
0.343483
-0.347735
-0.135488
-0.126574
-0.341457
0.182177
0.691702
0.883738
0.571282
0.593586
0.953358
0.943706
0.197788
0.477312
0.219743
0.430836
0.281845
0.797240
0.730991
0.485173
0.602594
0.185589
0.689024
0.768852
0.906036
0.676982
0.581526
0.205441
0.101891
0.069029
0.407569
0.791935
0.172253
0.469642
0.064671
0.225623
0.861522
1.014816
0.263257
0.303829
0.479427
0.087639
0.225843
0.655522
0.543259
0.445586
-0.064398
0.572195
-0.095757
0.717494
0.317789
0.851617
-0.032517
-0.017232
0.597739
0.949588
0.716897
0.217490
0.136107
0.799866
0.304447
0.561603
0.609728
0.494627
0.049173
0.692326
0.720250
0.781720
0.578167
0.854532
0.085549
0.057594
0.942171
0.333084
0.734808
0.507122
0.800362
0.842858
0.353919
0.064880
0.681899
0.685888
0.931993
0.706530
0.706881
0.567957
0.637196
0.404856
0.785448
0.773303
0.204722
0.089895
0.334906
0.814450
0.584522
0.384080
0.506776
0.304772
0.165800
0.084943
0.159304
0.251348
0.142537
0.101475
0.584432
0.877345
0.608598
0.384795
0.720204
0.962517
0.449675
0.402103
0.648405
0.381668
0.108633
0.355285
0.949625
0.745829
0.760141
0.735073
0.519132
0.964863
0.824967
0.854038
0.779313
0.409490
0.238118
0.286089
0.714262
0.403917
0.371033
0.873566
0.655266
0.513570
0.975042
0.239698
0.390915
0.583640
0.624493
0.111119
0.546156
0.074168
0.513222
0.194561
0.455836
0.621855
0.549846
0.405461
0.367684
0.309987
0.140534
0.886816
0.274850
0.965502
0.740854
0.054163
0.374991
0.978972
0.340252
0.089253
0.382889
0.711285
0.962820
0.038155
0.224854
0.937861
0.277854
0.615769
0.521501
0.902347
0.726888
0.067657
0.976515
0.240110
0.262218
0.432352
0.861965
0.812064
0.837813
0.229649
0.122052
0.978347
0.116464
0.396902
0.943849
0.857318
0.451065
0.318840
0.836290
0.791317
0.408093
0.219179
0.502602
0.370913
0.257334
0.727456
0.308774
0.535188
0.343226
0.830275
0.437534
0.070114
0.897932
0.414050
0.310224
0.160150
0.846401
0.172189
0.972215
0.684214
0.401837
0.094266
0.662561
0.518301
0.491168
0.606410
0.375620
0.942233
0.925251
0.211909
0.733551
0.333344
0.431088
0.236152
0.704257
0.688422
0.963609
0.013031
0.223610
0.306834
0.843306
0.661144
0.376948
0.741239
0.075194
0.687172
0.901389
0.921595
0.859360
0.873604
0.605809
0.261198
0.967871
0.268370
0.779499
0.459039
0.874781
0.155119
0.401273
0.800031
0.367028
0.134823
0.133375
0.798116
0.370976
0.837632
0.486538
0.334584
0.850663
0.710148
0.641419
0.693970
0.371292
0.018367
0.435209
0.446486
0.705539
0.336598
0.368081
0.564899
0.210202
0.973890
0.826097
0.178073
0.242261
0.605596
0.637112
0.117041
0.760714
0.038384
0.917072
0.127742
0.173207
0.050447
0.925858
0.544183
0.888080
0.412397
0.878767
0.738743
0.122545
0.520186
0.432712
0.493837
0.538553
0.867921
0.940324
0.244092
0.204519
0.308405
0.808991
0.414721
0.282295
0.635088
0.592793
0.524556
0.240683
0.229905
0.641597
0.001397
0.268289
0.558669
0.129139
0.441496
0.609117
0.054998
0.985679
0.497196
0.467394
0.864447
0.235939
0.589939
0.384633
0.668651
0.083777
0.923186
0.536572
0.024101
0.167278
0.741091
0.332506
0.976269
0.155812
0.614801
0.611356
0.748606
0.139357
0.852039
0.978511
0.780954
0.853437
0.246800
0.339623
0.982576
0.688296
0.948740
0.037574
0.673976
0.445936
0.504968
0.538422
0.681875
0.094908
0.923055
0.350527
0.178685
0.846241
0.887099
0.202785
0.013519
0.628190
0.535291
0.989788
0.784003
0.150092
0.601144
0.532608
0.289449
0.453184
0.511119
0.070403
0.306621
0.757918
0.410026
0.289197
0.446215
0.358766
0.326771
0.120190
0.804702
0.831739
0.658612
0.486577
0.926647
0.581668
0.837104
0.105332
0.427909
0.724203
0.308117
0.441428
0.352394
0.843408
0.431216
0.136396
0.993500
0.032360
0.669004
0.282949
0.485544
0.180123
0.353351
0.792164
0.938041
0.763377
0.081361
0.384256
0.122143
0.408132
0.504446
0.926844
0.239871
0.163059
0.413422
0.166518
0.744726
0.250525
0.271850
0.172635
0.974728
0.579967
0.614064
0.327122
0.423375
0.045280
0.463518
0.416875
0.077640
0.132522
0.699824
0.563184
0.312645
0.053175
0.355348
0.250687
0.816552
0.436710
0.634943
0.938695
0.844842
0.139389
0.865539
0.084713
0.302448
0.278961
0.251231
0.047174
0.529486
0.523081
0.219810
0.504214
0.103048
0.833873
0.831336
0.526423
0.879153
0.294854
0.943298
0.956793
0.427377
0.643121
0.519976
0.740022
0.696296
0.875325
0.990709
0.512848
0.312034
0.625652
0.451543
0.156876
0.765041
0.317082
0.241589
0.067489
0.596042
0.492820
0.114663
0.125528
0.015901
0.334473
0.629742
0.118948
0.168346
0.461079
0.645371
0.047499
0.755933
0.588669
0.004291
0.183310
0.231790
0.524268
0.923332
0.928086
0.399592
0.914041
0.440934
0.711627
0.539694
0.892477
0.868503
0.304735
0.209559
0.110091
0.372224
0.805601
0.602911
0.486887
0.931130
0.618812
0.821360
0.560872
0.737760
0.989706
0.021951
0.383131
0.037205
0.777884
0.971799
0.041497
0.961194
0.203589
0.774845
0.884526
0.131675
0.965357
0.798567
0.572610
0.798191
0.459468
0.586294
0.666693
0.764203
0.674646
0.655577
0.015220
0.480247
0.258488
0.502107
0.411376
0.877300
0.323467
0.972249
0.615060
0.313174
0.994199
0.998191
0.350379
0.772083
0.969990
0.391876
0.733277
0.173579
0.957640
0.617802
0.305254
0.922997
0.416369
0.877864
0.599981
0.754630
0.342951
0.145467
0.397625
0.017596
0.801044
0.412845
0.497843
0.059532
0.914952
0.909220
0.787752
0.450794
0.990998
1.101444
0.773001
1.180968
0.763018
1.088715
0.901473
0.728841
0.473883
0.436909
0.820911
0.374273
1.126089
1.107277
0.265237
0.395070
0.856641
0.754337
0.039396
0.154422
0.919933
0.567454
0.237317
0.720977
0.980300
0.735160
0.880573
0.995315
0.644380
0.717341
0.133672
0.525848
0.269233
0.685265
0.401516
0.819316
0.587238
0.049266
0.339388
0.881087
0.430293
0.033039
0.132576
0.429123
0.031945
0.307061
0.812775
0.908715
-0.067552
0.228894
0.935982
0.650149
0.726299
0.057049
0.531759
0.539704
0.107352
0.579792
0.156330
0.643935
0.089407
0.347212
0.561500
0.941450
0.356050
0.794889
0.438708
1.018505
0.774936
0.536243
0.607090
0.079961
1.010977
0.977058
0.884953
1.016824
0.646352
0.887957
0.825476
0.469134
0.643362
0.953911
0.403012
0.021416
0.116112
0.989482
0.583321
0.217025
0.492429
0.040478
0.962317
0.712717
0.631307
0.233456
0.202239
1.001227
0.875293
0.734400
0.751152
0.943881
0.910799
0.979380
0.697778
1.228629
0.263830
0.132431
0.716888
0.297716
0.517341
0.019708
0.299416
0.261970
0.547484
-0.218631
-0.050131
-0.119154
-0.076778
0.390730
0.030559
1.013999
1.822163
0.945025
0.651127
0.957195
1.012461
0.945775
0.849875
0.971865
0.190812
-0.019367
0.704663
0.120978
1.042120
0.701781
-0.107593
0.089010
0.130951
0.570412
0.665210
0.918197
0.746112
0.506994
0.145255
0.672172
0.615822
0.550609
0.800554
1.177819
1.034604
2.339543
1.918445
1.148122
-0.316156
1.081112
1.494067
0.280790
-0.805774
-1.313516
-0.292804
-0.012158
-0.065937
-0.814383
-1.750913
-0.468310
-0.466071
-1.858433
-0.788126
-1.600631
-0.866435
-0.467787
0.372540
0.510136
0.572762
1.648050
1.642767
2.046005
1.146482
0.277939
0.770840
0.603929
-0.222122
0.874863
1.027439
0.185275
0.243738
0.255082
0.863890
0.509322
0.294776
0.856269
0.503778
0.352514
0.720157
0.946975
0.170202
0.340859
-0.001941
1.021286
0.699526
0.715234
1.453608
2.629495
1.922162
1.301325
0.306635
0.281810
1.234865
0.293902
0.624909
1.819400
0.308002
0.191250
-0.116072
0.815329
0.535146
0.170206
-0.862070
-0.580174
-2.071047
-0.516459
0.032488
0.555928
1.055283
-0.038424
0.436088
0.681636
0.272398
0.884470
0.964178
0.468892
0.334225
1.188077
1.013122
1.566312
1.329194
0.676335
-0.116161
0.823853
0.370730
0.184818
0.094639
0.524428
0.171828
0.405196
0.800150
1.144523
0.344300
1.581615
1.723764
3.061299
3.495881
5.758783
4.651145
2.556824
2.165141
0.283428
-0.020395
0.269662
1.461891
1.230237
0.970468
0.213180
-0.726264
0.301822
-0.487073
-0.468793
-0.830577
-0.840298
-0.665379
-0.647894
-1.609340
-0.738571
0.753276
-0.655329
-1.251073
-1.973793
-0.432780
0.178586
1.150915
1.130123
2.452915
0.800946
1.012962
0.711345
1.025698
0.360783
0.079853
0.831008
0.594720
0.518306
0.347637
0.991762
0.133238
0.923836
1.157357
1.450149
0.988988
1.724916
1.996111
4.884096
3.955636
4.840035
6.478466
4.208200
2.575294
3.506416
2.595608
2.569301
3.393011
3.919452
2.134185
-0.228542
-0.785521
-1.269293
0.008649
-0.609432
-0.547361
1.077929
-0.890999
-1.110406
0.354470
3.041618
3.581971
2.009526
1.883950
1.560583
2.749049
4.497324
5.610557
3.108374
3.992972
3.316640
1.916894
2.339504
1.434541
0.627903
0.876062
0.786748
0.198241
0.027512
0.592344
0.591088
0.052884
1.357725
0.735177
1.115064
-0.525902
1.626647
0.841695
3.001306
4.365639
5.640835
6.625184
6.804145
4.161983
2.680319
1.022673
3.556852
3.193431
4.302272
2.870928
1.739838
-0.895651
-0.285141
0.270327
-1.897588
-2.139687
-3.158448
-3.129046
-3.679186
-4.429105
-1.901662
-0.524674
3.111829
3.802683
3.466963
2.551602
5.018276
7.111757
5.338742
4.474856
3.623905
2.785939
1.691837
1.161720
1.131624
1.030815
1.022130
0.375737
0.540110
0.294304
0.359793
1.117127
0.577220
0.164242
1.096138
-0.698644
-0.091988
0.744625
3.669777
4.811201
7.542764
7.473093
7.847099
4.467024
3.304493
1.778475
3.476926
5.880514
5.498090
3.713445
5.517577
4.376017
0.713847
-1.992545
-2.387141
-2.800904
-4.121005
-3.815766
-5.245508
-4.017711
-1.014822
1.848362
5.572203
5.006233
6.286704
4.608577
7.680101
7.337962
7.670884
4.371572
3.016922
3.509991
3.482111
1.410515
0.706634
0.644858
0.839185
0.942896
0.842607
0.915094
1.252790
1.071954
0.855627
0.274573
0.460428
0.309092
-0.069431
1.240516
4.033804
6.211663
6.943196
10.957069
7.944575
8.222871
7.389533
4.994969
6.830516
6.300819
4.180653
4.588365
1.750418
1.718619
0.052475
-1.293086
-3.452846
-4.268766
-3.978440
-2.758219
1.102300
2.157104
4.413734
4.882973
6.780196
6.158125
6.653682
6.886529
7.270080
8.606085
6.230284
5.267674
4.312588
4.959797
3.131653
0.846419
0.563409
1.092030
0.283338
0.983765
0.459944
0.642323
1.027896
0.881339
0.751138
1.449440
1.772198
0.967180
0.573542
1.127840
3.214410
5.242386
7.469376
9.569141
7.824627
9.155398
7.604146
7.752405
6.187062
5.167015
5.022029
4.146010
1.826978
0.127974
0.301191
-0.695169
1.677734
1.301037
1.743952
0.636262
3.232690
4.060525
6.535988
6.941687
6.341391
6.546662
7.167482
7.201607
8.340080
9.561474
6.163598
5.213172
5.717721
4.994714
3.694445
0.734457
1.389319
1.336047
0.648490
0.454406
0.441411
0.717028
0.462923
0.724542
1.602952
1.603361
1.446399
2.942663
2.192446
2.669695
2.142923
4.771930
4.935333
7.101032
5.667227
8.160038
8.775936
6.150512
7.969205
7.053455
7.105363
4.133837
3.715277
2.533807
4.654155
4.996573
4.618372
6.743698
6.367020
6.835676
9.296868
7.445033
8.269344
9.151643
9.975622
9.485061
8.809129
6.877396
6.028467
4.735576
5.110808
5.102776
4.572571
4.296635
3.712566
0.754198
1.190145
0.855680
0.317086
0.699951
0.066418
0.897292
0.364342
1.188546
2.174554
2.016966
2.185723
3.559177
3.205096
2.694710
2.839193
3.956788
3.820547
8.249822
10.860464
10.324594
10.240884
8.197852
7.215686
7.718464
9.247083
6.766437
6.761144
8.707860
7.654574
10.893604
12.233964
13.385780
13.594128
14.251434
13.611104
13.366429
13.146459
11.647614
10.042581
8.695546
7.952617
7.647022
4.377878
4.740408
3.670629
4.236799
5.780735
3.644673
2.235941
0.228006
0.828582
0.932569
0.368216
0.581362
0.309226
0.302792
0.329274
1.116865
1.918799
2.268236
3.028211
2.920031
2.913399
3.576414
3.970123
2.166113
5.539685
7.742902
11.188808
10.452477
10.066699
6.810492
8.290896
9.492788
9.446005
7.181670
8.742813
8.988182
10.130771
11.220777
14.755948
15.185785
18.172624
20.121319
19.082635
16.004885
14.049129
11.876806
10.023580
7.178535
4.706453
4.950292
7.038794
3.627737
2.872747
3.026373
2.762027
3.680121
2.247177
-0.777454
0.188462
0.341983
0.624665
0.277998
0.179354
1.327685
0.938330
0.650093
0.808056
1.687867
2.210920
1.891727
3.209066
1.529719
1.073109
4.545953
7.232050
7.547289
11.420503
10.660218
10.818187
7.516878
5.976843
7.640450
8.990307
9.785268
11.428319
11.115239
8.061683
12.405522
14.342565
16.024076
15.772921
17.198253
19.081142
15.654931
14.535004
11.492032
8.958330
6.188761
6.567103
5.271088
4.458236
2.790049
4.302645
2.671144
3.501283
2.092008
1.562299
0.204534
0.669702
0.318003
0.079206
0.167080
0.694969
1.071309
0.909823
0.407554
0.969130
1.220969
1.025983
3.307764
2.740528
1.482202
1.514240
4.107029
5.820109
6.102057
6.266451
9.988599
11.315687
8.043669
11.422766
14.276578
16.639388
14.354035
13.374944
12.799958
12.243355
11.663012
12.592620
12.735578
15.293789
16.368918
14.497806
14.069765
11.980344
10.602758
10.464898
7.856617
6.669386
1.210905
4.057987
1.768945
3.454309
2.327375
2.451648
1.818353
0.111413
0.825247
-0.209153
0.647162
1.056772
0.912603
0.767094
0.320763
0.686366
1.337327
0.858923
0.791701
1.082680
1.083818
2.598290
3.564177
0.580368
1.575909
2.891210
5.587125
7.308807
8.735708
13.640963
13.964086
13.635678
14.845837
15.923703
16.608129
13.306594
12.531283
10.544539
7.590397
6.150072
9.571012
12.152827
10.541150
12.076244
10.521995
6.764469
6.638690
5.012504
4.998774
3.647219
3.648680
1.706679
2.260379
1.664338
1.003104
0.717897
0.597053
-1.226441
-0.889345
0.062532
0.348605
1.033159
0.414727
0.460079
0.425101
0.646512
0.967102
0.589805
0.702418
1.028416
1.161690
1.615701
2.011606
0.216462
-0.308254
2.101558
5.747298
6.431383
9.562455
12.259470
12.796320
13.854110
15.462676
18.104522
21.655964
17.605351
11.611348
5.738566
1.797877
-1.355120
-0.110066
2.186310
0.980959
6.061009
6.323420
1.737210
1.685156
2.352065
2.066421
1.315843
-1.525218
-0.096283
1.599290
1.507998
-0.150987
-0.532038
-1.075755
-1.563620
-0.502577
0.049690
-0.203443
0.150924
0.566732
0.542645
0.661363
0.411988
0.907104
0.773105
0.107943
-0.152661
1.146109
0.429247
0.575151
0.732828
1.170577
0.609483
5.199993
6.237382
7.286411
10.138002
12.249403
13.861812
15.365541
21.346187
24.763232
21.267129
15.258067
6.682479
-1.016433
-4.772258
-5.206569
-3.780882
-2.252781
-3.575813
0.521707
-2.265014
-0.368345
-1.346152
-2.985786
-1.482394
-2.867800
-0.371900
0.099795
0.130185
-0.540911
0.295283
-1.015510
-1.071982
-1.415061
-0.349871
-0.176113
-0.160088
0.756338
0.483380
0.753242
0.407707
0.783657
0.033561
-0.041124
0.150170
0.380186
-0.053400
0.845752
0.818469
0.583994
1.736735
2.633317
3.374383
3.331859
6.431728
9.435057
13.329343
19.225165
25.706812
27.048113
28.053400
22.116446
9.246744
-2.091243
-10.643854
-12.726092
-11.023121
-9.828772
-6.923526
-5.505779
-6.112978
-6.256949
-4.719800
-4.790196
-3.870146
-6.343255
-2.198401
-3.321410
-1.182682
-0.425798
0.037296
-1.998429
-1.508101
-1.921565
-0.922014
0.140952
0.104550
0.918870
0.138720
-0.018035
0.305688
0.525385
0.363084
0.523994
1.015493
-0.237874
0.664024
0.751030
0.287170
-0.502966
2.164389
2.460029
1.503723
2.930655
4.016347
10.794359
14.679089
21.222307
23.225627
28.988680
32.293800
28.235741
14.304169
1.832877
-8.852655
-13.606591
-14.244333
-13.772085
-10.693152
-10.044079
-10.166808
-9.590610
-9.720367
-8.081342
-5.769270
-5.844634
-5.719200
-4.571249
-2.515161
-1.781701
-2.384175
-3.302463
-1.919153
-1.051250
-0.777826
-0.312066
0.293419
0.293647
0.063377
0.878466
0.007846
0.410758
0.555724
0.838994
-0.105488
0.094956
1.095078
0.021064
0.297633
-1.170502
-1.585775
1.540473
0.996216
1.760194
6.029438
6.951766
11.194200
17.241068
22.756337
26.364290
30.388895
32.688458
23.244472
9.442804
2.489577
-7.413236
-12.329014
-15.808381
-14.381770
-12.287008
-15.154716
-15.297972
-13.737339
-14.910862
-11.728552
-10.370291
-7.910825
-6.668351
-5.662223
-4.743883
-4.955873
-3.043844
-2.134014
-1.510750
-0.420459
0.390672
0.121190
0.207764
0.972181
0.891280
0.421191
0.562669
0.719597
0.819724
-0.557906
0.486842
1.183816
0.451262
-0.142884
-0.554655
-3.149218
-1.468343
-0.948493
-1.058566
2.679475
5.887477
5.684436
9.428736
15.262568
22.767687
25.912247
27.245544
25.810411
19.086633
9.745883
2.015479
-7.134638
-13.883943
-13.635519
-14.279541
-16.593001
-15.475557
-18.790013
-15.699463
-11.225836
-13.747440
-12.862058
-9.387249
-8.470413
-6.098337
-6.002583
-3.776577
-3.148177
-1.342409
-0.623002
-0.245936
-0.012135
0.372560
0.763033
0.420388
0.363564
0.067384
0.662293
0.916512
0.114166
-0.325326
-0.577459
-0.356521
1.122789
-0.336770
-1.056426
-3.059025
-1.479186
-0.748031
-0.834135
3.056307
1.962421
3.510010
8.171889
15.739190
20.630353
23.390369
26.949130
22.832040
16.451952
7.370234
-1.633004
-7.797334
-12.253504
-13.984313
-16.246896
-16.661381
-19.202291
-19.349529
-16.819190
-15.098028
-14.094388
-11.270545
-9.139704
-8.150988
-6.133961
-3.814925
-3.211271
-1.817337
-1.221147
-0.375790
0.419694
0.202968
0.012060
0.298363
0.079799
0.240592
0.369046
0.488461
-0.189461
0.134610
-1.552658
0.300180
-0.439556
0.891392
-1.216110
-1.269293
-2.593929
-3.775192
-3.504994
-2.316183
-0.109718
0.386072
-0.631793
9.214187
15.886753
17.691424
19.071722
24.062735
19.398751
13.650624
4.848335
1.997422
-5.829278
-12.357789
-13.143068
-14.223740
-17.086510
-19.857730
-17.870477
-17.339259
-14.921692
-12.070978
-9.725280
-7.514433
-4.187364
-5.143157
-2.797287
-1.434997
-0.313180
-0.254130
0.658235
0.881604
0.584100
-0.003499
0.457973
0.521345
-0.019040
0.083879
-0.314168
-0.171898
-0.500015
-1.303199
-1.442550
-0.798924
-1.070066
-1.649976
-3.785807
-4.172369
-4.258731
-5.240807
-5.277688
-3.693313
-2.242907
0.228273
4.620287
11.186015
12.280684
16.330192
18.942522
18.425265
13.920846
7.352290
1.849102
-5.707342
-11.418868
-13.503356
-15.269162
-17.929058
-18.578382
-17.092272
-18.332925
-14.394649
-11.459471
-7.936884
-5.596098
-4.741669
-2.866236
-2.188471
-0.882379
-0.931403
0.707431
0.200387
0.610399
0.392399
0.047733
0.187535
0.414329
-0.103635
-0.512096
-0.554516
-1.429789
-1.192907
-0.988627
-1.029941
-2.712309
-2.598984
-3.396943
-6.048198
-7.426909
-8.257513
-8.742833
-7.137175
-6.815246
-4.252796
-3.089123
-2.275666
2.380502
7.443669
12.362686
13.565361
13.229349
13.822813
8.825697
3.169957
-0.681203
-6.510908
-10.896813
-13.139172
-15.885693
-14.973808
-15.747988
-13.935204
-11.451565
-8.081064
-6.695390
-3.883944
-2.500128
-1.969492
-1.085077
-0.753731
0.405238
0.234716
0.709380
0.651868
0.506196
0.370408
-0.136204
-0.069311
-0.428747
-0.487624
-1.663511
-1.136203
-1.794702
-1.618358
-2.541251
-3.447202
-4.920714
-7.061175
-9.035104
-9.480733
-8.878301
-8.852627
-7.239076
-6.372052
-8.701871
-8.573469
-7.831133
-8.871427
0.599802
5.223519
10.805693
13.057766
11.683705
10.281226
8.851115
2.532492
-0.349681
-6.919411
-10.415700
-10.786103
-13.204917
-10.813895
-10.445711
-7.540252
-5.302953
-3.571178
-1.727456
-2.169052
-0.879802
-0.077652
0.179860
0.674486
0.753893
0.042174
0.987808
0.642643
0.271695
0.829129
0.115310
-0.975477
-1.796766
-2.026166
-3.189621
-3.365911
-1.834552
-4.058922
-5.970410
-8.107007
-7.913699
-9.419931
-9.546852
-9.440151
-10.278067
-7.268797
-7.941392
-14.480447
-15.795224
-16.739563
-11.699975
-3.094748
4.129399
9.330376
14.780369
13.741142
15.951580
12.642478
8.443965
3.865008
-3.629351
-5.846577
-7.643872
-9.211265
-8.678473
-6.067732
-5.443639
-3.818784
-1.189765
-1.839322
-1.117839
-0.663499
0.225956
0.522031
0.758957
0.386992
0.605350
0.691799
-0.009414
-0.020329
0.084217
-1.142386
-1.658467
-1.616473
-3.307365
-5.086192
-2.975252
-3.861755
-5.673151
-6.903045
-7.891336
-8.124663
-7.748371
-8.744830
-9.024818
-7.293101
-10.038181
-11.618243
-21.578307
-22.493037
-21.987710
-13.489643
-2.928646
5.435996
11.291420
16.231179
18.359479
15.557353
12.978510
12.722747
5.370255
-4.486338
-5.730809
-5.321365
-5.163587
-5.104150
-4.828622
-2.850124
-1.567180
-1.493707
-0.961927
-0.183042
0.501819
0.705081
0.959769
0.827098
0.233157
0.513153
0.084929
0.323625
0.085029
-0.896700
-1.517108
-2.228518
-4.143284
-5.329539
-4.610779
-4.765685
-6.500615
-6.807377
-6.780284
-7.106728
-7.968364
-6.559640
-5.208624
-5.150737
-7.222650
-14.579833
-19.632501
-24.697475
-25.757751
-20.373462
-8.442619
2.027657
10.066854
18.972832
20.222842
17.511026
16.197843
13.860401
11.207255
4.313553
-1.694452
-2.383596
-2.938288
-4.223931
-3.930829
-2.361179
-1.281653
-0.937244
-0.048322
-0.193692
0.847626
0.726524
0.000857
0.713324
0.017896
0.258594
0.677414
0.131209
0.043826
-1.030246
-1.948618
-2.365429
-4.323961
-5.270094
-5.342780
-6.068413
-6.541713
-6.256027
-6.386222
-6.350931
-6.809337
-7.278943
-6.067619
-4.657205
-7.724729
-10.485754
-16.372576
-22.031504
-25.754922
-23.494009
-15.383570
-5.471623
5.791891
11.649903
19.400294
17.958583
19.357804
15.224060
12.456065
6.650332
2.275375
-0.018982
-1.021439
-0.103032
-2.661812
-1.916578
-0.935270
-1.396848
0.041463
-0.245917
0.375151
0.396640
0.112755
0.368985
0.709648
0.409917
0.698521
0.126859
-0.319234
-1.372019
-1.721181
-2.284828
-4.991452
-5.931188
-6.509933
-5.944260
-6.370038
-6.593431
-7.006585
-7.698899
-7.698047
-6.333469
-5.163883
-3.681025
-4.940246
-9.913395
-15.519549
-19.311016
-23.231214
-24.412288
-19.064220
-10.896524
-0.702149
5.309764
13.309691
11.063176
16.356967
13.511423
10.427547
6.604653
2.826977
0.632725
-1.360603
0.572780
-0.431105
-0.621522
-0.343292
0.229833
-0.135442
0.214532
0.155526
0.883423
0.257662
0.423967
0.668401
0.962591
0.732604
-0.394367
-0.888155
-0.908051
-1.929482
-3.040164
-5.219942
-5.946708
-6.329926
-6.717312
-5.844680
-7.057674
-7.296602
-7.717266
-7.823308
-6.798533
-5.884184
-4.226010
-4.292256
-8.531474
-12.616016
-15.397178
-19.198034
-20.515796
-17.256387
-12.755201
-3.698415
2.785644
7.314958
6.868650
8.448281
12.126686
7.751242
7.333046
3.481105
0.576733
0.036734
1.856659
3.172254
0.448856
1.668680
-0.619254
-0.444752
-0.107371
1.082146
0.708425
0.375048
0.868377
0.626983
0.165939
-0.102321
0.229333
-0.902937
-1.495473
-1.633212
-3.025661
-4.500542
-5.961086
-6.460562
-7.148790
-7.191272
-6.739951
-7.477554
-7.278579
-8.749349
-7.140263
-6.529576
-4.312378
-6.434689
-5.849928
-9.205389
-10.810754
-11.181757
-14.776100
-11.648385
-11.750132
-6.344923
1.390966
5.537894
5.023540
1.689664
7.743298
7.292406
3.691294
2.651586
1.048085
-0.970310
0.753872
2.490635
2.946753
1.799361
1.457241
-0.217345
0.594776
1.322727
0.311550
0.735766
0.817384
0.103932
0.940007
0.333679
-0.207363
-0.252697
-1.353763
-1.308058
-3.360838
-4.836281
-5.722359
-7.274110
-6.572102
-6.463174
-5.965547
-6.957549
-6.856105
-5.857023
-7.078495
-8.226570
-6.356458
-5.255315
-6.277007
-6.480544
-8.265198
-8.538090
-12.288267
-9.112734
-9.851312
-7.692753
-3.165294
2.245201
1.733492
2.883660
0.235871
6.548244
4.037636
0.440387
2.908590
-0.247181
-0.682129
2.207237
3.657404
4.016705
1.847907
1.693459
0.387226
1.128919
1.342150
0.258609
0.328081
0.758426
0.354545
0.179629
0.061565
-0.061630
-0.877061
-1.716120
-2.622264
-3.556111
-4.618283
-4.779118
-4.968375
-4.746608
-5.126727
-6.238397
-5.411297
-4.818320
-6.173957
-5.274025
-4.310092
-5.873835
-5.643611
-6.514539
-8.592336
-5.979191
-8.681634
-9.065555
-10.217622
-8.753426
-5.108075
-2.991693
-2.140623
0.055132
-2.483953
1.537546
-0.275255
-0.488102
1.040089
0.292071
0.389067
0.529740
2.859108
5.234635
3.408503
2.640063
1.194634
1.129568
1.397348
1.155455
0.558329
0.395471
0.406389
0.522005
-0.001319
-0.097418
-0.794842
-1.345082
-1.789962
-2.249383
-2.856852
-3.569027
-3.622325
-2.402239
-2.717207
-3.949713
-3.584533
-1.501834
-2.819995
-1.668166
-2.525701
-4.337746
-5.060990
-5.771528
-8.390201
-8.067806
-9.026770
-9.089480
-11.177964
-12.316005
-10.435958
-5.049651
-4.521280
-4.749208
-2.128832
-2.986394
2.217257
0.932974
0.875993
3.272388
1.357576
1.041180
4.341600
6.057820
5.173066
2.057411
2.414009
0.666786
1.038853
0.415829
0.826313
1.176610
0.812352
0.734403
0.729930
-0.218433
-0.892443
-1.515264
-1.537855
-0.385467
-2.455230
-2.942506
-2.408360
-0.326024
-0.612691
-0.158036
-2.110761
0.429759
-0.224687
-1.463019
0.614489
-4.467556
-2.786463
-5.867840
-7.960882
-8.086370
-9.949034
-9.960667
-12.029902
-14.214954
-13.568671
-7.661737
-4.626676
-6.671015
-4.548491
-2.561141
-0.687972
-1.437419
-0.555733
2.361180
1.722792
2.286466
2.547656
5.118297
6.079504
3.324351
2.045565
1.283137
0.988199
0.777330
0.773144
1.116169
1.093672
0.263743
0.652400
-0.547055
-1.839891
-2.544431
-1.367977
-0.561378
-1.717046
-0.207129
-2.261961
0.404994
1.035948
-1.685439
-1.192538
2.078608
1.596356
-0.142409
-0.139457
-3.200761
-2.636957
-5.078114
-7.911046
-6.797160
-9.111551
-7.682470
-9.100942
-12.998177
-13.921402
-11.411874
-9.067361
-9.218599
-6.893732
-5.996879
-3.443137
-1.287678
-0.193548
1.437396
3.812234
2.266365
3.186366
5.116508
6.160016
3.816311
1.767711
2.306464
0.833547
0.137003
1.206657
0.971756
1.042578
0.031822
0.851943
-0.782197
-0.499895
-1.338073
0.193307
0.483241
-1.824802
-1.239673
-2.274713
0.972092
4.188864
2.563575
0.299066
2.280073
2.904847
0.923920
-0.290981
-4.301010
-4.315784
-5.670113
-6.101792
-8.791642
-8.647654
-7.506714
-8.057929
-12.258371
-11.065116
-11.025918
-11.239156
-10.256016
-5.420946
-6.099405
-2.631487
-1.017344
0.889047
0.275678
3.223279
2.246674
3.062011
5.589164
5.470227
2.781460
2.137774
1.942588
1.258296
0.328784
1.055928
0.541521
0.213088
0.706038
0.862994
0.360185
-0.677967
-1.202565
1.148716
0.987724
-0.302690
0.669756
-0.549993
1.066845
5.044431
4.039753
1.232059
1.704292
2.423235
-0.669990
0.065528
-3.489910
-5.175232
-5.360228
-5.662014
-7.398081
-8.662048
-8.066407
-10.346886
-9.836047
-10.150075
-9.988695
-10.028929
-7.795430
-5.369505
-5.757303
-3.107720
-1.366367
-1.297898
1.904161
3.196546
4.174129
3.994926
5.647179
4.007386
3.719499
2.802143
2.554570
0.935554
0.789924
0.363671
0.117582
0.386223
0.720033
1.036659
-0.148705
0.548960
-0.706099
1.039548
1.889603
2.637309
0.457636
1.983681
3.343175
5.454693
6.366520
1.521968
1.401378
2.013479
-1.851855
-2.980819
-2.471150
-5.213970
-5.187484
-5.522176
-7.143862
-6.089569
-7.956580
-7.798037
-8.610019
-8.070746
-8.178467
-10.237885
-6.303596
-6.123381
-5.743668
-1.056294
-2.302598
-3.627363
2.343631
2.200060
2.933321
3.666789
4.389990
4.446482
4.693165
2.962461
2.234567
1.759160
0.977353
1.055220
0.922718
0.569790
0.434069
-0.123230
0.596604
0.422291
-0.563402
-0.313137
1.963584
3.374520
3.063775
3.346980
1.101359
4.566345
5.010049
0.481963
-2.522652
-2.704752
-1.017754
-2.681199
-3.034574
-4.096718
-6.500236
-5.573243
-3.455825
-4.384498
-4.093697
-4.969168
-5.992775
-8.291027
-7.494031
-5.165473
-1.329688
-4.963280
-4.523721
-3.852256
-6.608677
-4.073796
0.014593
2.793503
1.787914
3.752957
3.890728
4.959888
4.885784
3.346798
3.067010
1.402111
0.605144
0.337128
0.072392
0.226059
0.562320
0.544462
0.705638
-0.477402
-0.107789
0.210544
1.769177
2.223890
2.746500
5.329658
2.282646
3.208647
2.835775
1.086946
-3.537181
-3.028493
-3.434029
-7.913680
-7.582583
-7.331004
-6.812606
-4.772148
-4.966212
-3.963940
-6.075066
-5.092074
-1.510876
-3.089343
-2.653145
1.196718
-1.695538
-1.494713
-3.897544
-6.134598
-6.564431
-1.080992
1.508059
2.889471
2.935084
1.952361
2.938611
6.034615
5.463741
3.479534
2.569658
1.824938
1.023358
0.610776
0.254391
0.439626
1.045693
0.661521
0.539852
0.089370
0.269863
0.039866
1.251865
1.504844
1.637156
7.938282
5.212659
2.378977
3.771162
-1.497039
-4.263823
-4.523201
-3.483668
-3.451284
-6.707478
-8.477240
-5.996228
-5.840069
-3.836748
-2.582421
-1.524049
0.423013
0.015427
0.567503
-1.396712
0.521061
-0.714861
-2.832539
-1.934427
-7.227462
-4.422524
-1.161517
1.774464
2.265536
-0.231070
-0.095011
2.932306
6.388266
3.626276
3.121187
1.485480
1.536365
1.370530
0.552616
0.075755
0.483356
0.276159
0.521326
0.142090
-0.852350
-0.431712
0.326185
-0.498363
0.576835
2.040311
2.909081
3.615953
4.569087
2.797391
-1.830779
-5.159839
-6.085769
-7.484760
-4.491928
-5.754317
-5.893499
-6.503992
-4.498742
-0.946925
-0.616663
1.901124
0.838861
1.234557
-0.053514
2.407008
1.881343
0.324516
-0.043757
-5.821392
-6.374792
-4.302046
-0.734087
0.146247
0.533776
-1.761901
0.170444
2.339131
5.147762
3.612661
1.569807
1.374201
1.732259
0.745534
1.107751
0.204930
0.175486
0.275522
0.730210
0.696871
-0.146258
0.657808
-0.107113
0.783095
-0.097623
1.839919
1.894805
3.281270
3.166845
0.860369
2.908887
-1.133660
-2.718055
-4.745809
-5.448841
-4.261125
-2.447697
-2.006341
-1.272796
0.116954
0.590085
2.236270
2.995512
4.544417
4.253501
1.646162
1.980641
-0.636115
-2.970727
-3.149970
-2.661207
-2.013729
-0.525280
-0.945750
-1.872138
-0.905810
-0.374186
2.309734
3.219612
2.338257
1.357810
1.688177
0.950886
1.407773
0.575910
0.342661
0.792460
0.736198
0.444741
0.723863
0.059797
0.684428
1.132782
0.782953
1.794547
-0.667291
2.548659
3.109543
2.024869
1.816349
0.274612
1.260866
-1.171278
-2.458778
-3.171444
-2.544670
-2.770286
0.488194
0.702170
2.749326
1.096411
2.365001
3.377327
4.507747
5.002542
4.746495
3.029526
-1.190191
-1.644009
-0.055776
-0.652257
-4.025006
-0.791145
-2.108181
-0.298080
-1.121210
-1.304665
0.320998
2.488224
1.443695
1.153668
1.281676
0.739798
1.066984
0.297341
0.682784
0.287309
0.303792
1.058534
0.429354
0.493015
1.866485
1.724574
1.585351
2.167627
0.299969
2.253352
2.976639
3.052874
1.209884
1.033855
0.054465
2.275331
0.631341
0.043541
-1.748714
-0.094982
0.676406
1.409703
1.308474
2.056578
2.128781
4.239867
6.961931
5.451313
2.946390
0.677062
0.602388
-1.338587
-0.610431
-1.317325
-2.507261
-1.642704
-2.353409
-2.309588
-2.157056
-1.535205
-0.025309
1.114671
1.355923
1.120161
1.402369
0.941018
0.474692
0.662370
0.356943
0.496093
0.518597
0.107967
0.547672
0.967912
1.219389
0.665886
2.305272
1.672382
1.644235
1.704365
2.816234
3.091251
1.665288
2.406272
1.006728
1.542174
1.489527
1.386804
-0.192747
1.778407
2.710255
2.524944
3.530404
3.178514
4.502511
5.934684
7.369406
4.994812
3.689709
2.122657
0.243377
1.298261
-1.036469
-2.083984
-3.062532
-3.811344
-1.753856
-0.966153
-2.296286
-0.877329
0.594514
1.690402
1.032972
-0.230664
0.052268
1.101529
0.697320
0.669954
0.868177
0.769481
0.896001
0.345899
0.610828
0.747478
1.898237
-0.102658
-0.848060
0.808778
-0.055669
1.488496
3.310918
3.476647
5.300982
1.392251
1.126205
1.675911
4.250941
3.377023
3.391691
4.939075
2.474025
3.415716
3.518673
5.165764
2.651667
2.761887
5.057562
2.847227
3.358948
1.959397
1.469846
-1.663239
-1.054707
0.154628
-0.870376
-3.155997
-1.148294
-0.536750
-1.357921
-1.543342
-1.339467
-0.657222
-0.568964
0.516073
-0.011330
1.255692
0.584862
0.928122
0.573550
0.853345
0.580652
0.301434
0.288356
0.261796
1.269131
-0.272521
-0.205991
0.131476
-0.943364
0.704635
1.232797
3.633394
3.781972
4.048762
4.438039
5.817604
6.627600
7.167343
6.484984
7.227689
7.558188
7.218465
7.170938
8.157396
5.976864
4.593420
2.229014
1.217330
-1.248137
1.303115
1.297534
-0.435058
0.663195
0.789348
0.219203
-1.662999
-1.585790
-2.789162
-1.430236
-0.936220
-1.764455
-1.826363
-0.448182
0.471363
0.718662
0.360559
0.892116
0.990016
0.113841
0.094692
0.533353
0.172956
0.223770
0.039108
0.781740
-0.709402
0.568259
0.501299
0.629745
0.622856
1.792514
3.331326
3.862484
3.383968
5.229856
3.173977
3.932988
3.611668
3.853176
4.372827
3.888647
5.336877
3.484897
3.600639
3.059865
3.513703
4.186451
3.068659
2.053290
-0.504973
1.724983
-0.122565
-1.476277
-2.905703
-2.782759
-2.766678
-2.357755
-0.579093
-1.471918
-1.008106
-2.063302
-1.954431
-0.392849
1.093794
0.572917
0.353044
0.011066
0.412444
0.781376
0.221054
0.301201
0.351202
0.775345
0.230362
0.432721
-0.120762
-0.479653
-0.061256
1.394225
0.485151
1.111662
2.098012
3.135931
3.055636
3.466993
3.876535
2.459861
4.166117
2.024819
2.613617
2.495316
1.905115
2.116254
2.327883
1.829483
2.554250
3.811838
2.142247
1.965109
0.857221
0.983779
-1.109140
-1.529271
-2.955813
-3.222725
-2.061920
-0.942011
-0.421954
-0.481562
-1.373674
-0.532305
-0.789984
-0.092485
0.562382
0.465123
0.311025
0.373209
0.888766
0.041471
0.856839
0.199198
0.355149
0.345793
0.512022
0.482112
0.156575
-0.054865
0.256060
0.249114
0.977955
0.945730
2.330504
1.355860
1.511633
0.372732
1.071673
0.587632
1.188792
0.764182
0.582852
1.081680
1.090228
-0.459004
0.320868
0.451383
0.981600
2.627293
3.340882
1.486035
1.374804
1.554097
-0.348459
-0.567851
-0.930395
-0.824852
-1.058740
0.180163
0.163536
-0.494749
-0.819381
-0.329373
0.285798
-0.428670
0.457398
0.625574
0.370203
0.002562
0.006525
0.097046
0.114554
0.075433
0.962052
0.855676
0.539882
0.376390
0.175361
0.458470
0.356065
0.013332
0.024451
0.535418
1.434863
1.723110
1.774003
1.644326
1.068930
1.233345
0.591887
0.535380
1.355500
0.291765
0.840428
0.097151
0.214853
-0.636794
1.117322
0.266152
-0.085229
1.059761
-0.017789
1.163839
-0.142574
0.199627
-0.110752
-0.280170
-0.626807
-0.525178
-0.301604
-0.644558
0.220952
0.040498
0.058393
0.200640
0.837826
0.072955
0.692779
0.286699
0.901636
0.111443
0.610921
0.474117
0.705004
0.190990
0.823679
0.352392
0.268165
0.798816
0.369983
0.347902
0.780478
0.700528
0.898683
1.138008
0.617264
0.596778
0.378180
0.607076
0.749302
1.225925
0.852852
0.439849
0.720964
0.876650
0.224654
0.046712
1.117194
1.860555
1.601400
1.439701
0.289545
0.193273
0.546899
1.424015
0.693735
1.058991
-0.161414
0.156750
0.237682
0.111087
0.740509
0.471740
-0.024991
0.392083
0.340860
0.567865
0.984242
0.775411
0.748150
0.088499
0.639438
0.980956
0.146646
0.946827
0.632561
0.436981
0.092041
0.357121
0.420095
0.523953
0.983318
0.514652
0.823214
0.440122
0.371959
0.900675
0.107687
0.566230
0.481358
0.872624
1.144034
0.407232
0.463973
1.224913
0.812111
0.813034
0.873769
0.773854
0.788443
0.739456
1.034032
1.599203
0.975641
1.447974
1.594924
1.343774
0.378473
-0.153352
-0.016079
0.297879
0.442866
0.233082
0.135689
0.119035
0.348260
0.449901
0.919646
0.355883
0.916067
0.222246
0.086315
0.904169
0.374738
0.320033
0.898827
0.919312
0.894612
0.461350
0.448129
0.244600
0.772023
0.065444
0.234028
0.163715
0.929469
0.270345
1.087905
0.130411
0.298640
0.269153
0.586085
0.685525
0.468483
0.787073
0.869859
0.882042
0.358141
0.910672
0.359093
0.274209
0.463206
0.959509
0.663745
0.600129
0.765481
1.000992
0.365742
0.722979
0.601482
0.878082
0.907638
0.189411
0.819374
0.017513
0.253063
0.648779
0.187795
0.240905
0.679126
0.386371
0.510057
0.330510
0.137195
0.043839
0.117583
0.007054
0.925882
0.354557
0.796559
0.163807
0.507599
0.808310
0.488048
0.564810
0.194799
0.132322
0.520848
0.500600
0.671207
0.938236
0.254530
0.454693
0.127648
0.073904
0.472206
0.380711
0.722682
0.660001
0.621615
0.401808
0.046372
0.131673
0.732318
0.183567
0.175512
0.849901
0.190620
0.101394
0.204458
0.987179
0.265201
0.712057
0.795489
0.753249
0.276867
0.990288
0.885571
0.797715
0.490888
0.556777
0.735951
0.745418
0.011470
0.863599
0.819322
0.483676
0.244310
0.542004
0.143677
0.865926
0.943812
0.190049
0.997598
0.676130
0.373616
0.173111
0.526031
0.564236
0.274505
0.730489
0.551415
0.539706
0.442547
0.346904
0.292955
0.719414
0.337192
0.178526
0.517129
0.828080
0.735303
0.253080
0.573499
0.746773
0.116679
0.392820
0.230449
0.360989
0.934824
0.374126
0.226915
0.878636
0.564174
0.224513
0.554766
0.937790
0.397624
0.080797
0.502026
0.672129
0.811287
0.053441
0.211834
0.253833
0.400345
0.504789
0.973247
0.737537
0.683315
0.490376
0.565618
0.418618
0.743456
0.139116
0.165391
0.860135
0.531936
0.395840
0.221124
0.466761
0.769966
0.448039
0.345397
0.334140
0.672552
0.900163
0.271930
0.070176
0.980961
0.773956
0.742305
0.792247
0.827397
0.954139
0.046081
0.227743
0.458929
0.019328
0.965280
0.142244
0.509703
0.530898
0.560862
0.253159
0.670014
0.726253
0.113294
0.201950
0.122093
0.334418
0.668711
0.892059
0.782457
0.014108
0.226199
0.455009
0.914271
0.498129
0.525185
0.895232
0.272085
0.267490
0.687479
0.099483
0.221629
0.733560
0.327226
0.680558
0.752888
0.292506
0.822802
0.262591
0.823403
0.383663
0.515750
0.493417
0.109916
0.629044
0.695367
0.232009
0.963463
0.364078
0.124068
0.745920
0.378185
0.350267
0.200929
0.292456
0.848396
0.726115
0.187688
0.120481
0.993605
0.875167
0.219964
0.215234
0.608727
0.547190
0.895792
0.361615
0.839695
0.718593
0.624206
0.663099
0.102257
0.139957
0.156515
0.212173
0.769001
0.851882
0.444182
0.732464
0.215960
0.568250
0.478384
0.594146
0.918517
0.679313
0.886602
0.766913
0.405427
0.074290
0.887395
0.399032
0.949458
0.107359
0.614266
0.558185
0.654549
0.510058
0.919800
0.494245
0.228651
0.544006
0.157343
0.330907
0.683963
0.313859
0.543080
0.452964
0.165741
0.987262
0.185428
0.381701
0.555513
0.663812
0.975847
0.474030
0.343125
0.862449
0.240944
0.748552
0.936739
0.128338
0.147584
0.886196
0.235698
0.761850
0.444381
0.890247
0.271907
0.364181
0.384491
0.500558
0.908188
0.541835
0.831465
0.592151
0.855693
0.374545
0.045115
0.021434
0.361808
0.230544
0.403135
0.917320
0.894355
0.378982
0.391351
0.237480
0.241431
0.632294
0.986032
0.178169
0.760633
0.133615
0.064366
0.996330
0.895465
0.508747
0.886577
0.167372
0.872928
0.271069
0.667930
0.781116
0.812903
0.499395
0.373267
0.668597
0.873940
0.418382
0.690031
0.235748
0.648925
0.093166
0.153068
0.543281
0.472148
0.544419
0.780761
0.713579
0.176713
0.766792
0.891748
0.937345
0.900408
0.956114
0.933676
0.795873
0.464861
0.820253
0.963245
0.337789
0.091322
0.631174
0.118905
0.904225
0.130569
0.492172
0.572822
0.004509
0.910554
0.262853
0.240257
0.559479
0.356019
0.393325
0.102760
0.828167
0.937743
0.883520
0.541746
0.114456
0.650313
0.433494
0.051802
0.550721
0.389608
0.985477
0.346594
0.854469
0.805731
0.309838
0.192258
0.897052
0.941013
0.311163
0.801278
0.071582
0.803335
0.374100
0.076091
0.713889
0.636953
0.316348
0.273368
0.992972
0.709672
0.376127
0.821139
0.647416
0.259648
0.362885
0.761872
0.909961
0.796378
0.813673
0.460682
0.185986
0.799151
0.807275
0.040455
0.604881
0.117113
0.232713
0.501934
0.058126
0.543876
0.303211
0.129708
0.347211
0.677311
0.205799
0.061100
0.314264
0.522147
0.334468
0.307236
0.231819
0.710595
0.128375
